~o
<STREAMINFO> 1 39
<VECSIZE> 39<NULLD><MFCC_E_D_A_Z><DIAGC>
~s "silst"
<NUMMIXES> 10
<MIXTURE> 1 6.416372e-02
<MEAN> 39
 -6.805034e+00 7.654866e-02 4.669364e+00 7.653769e+00 6.233181e+00 9.014573e+00 6.424209e+00 8.997143e+00 3.557302e+00 5.458024e+00 3.597659e+00 5.961640e-01 2.253729e-01 -2.334699e+00 -1.531708e+00 -7.530546e-01 9.344422e-01 1.572503e+00 2.306006e+00 2.671890e+00 2.993176e+00 2.339379e+00 1.962231e+00 1.070050e+00 5.036486e-01 -1.111564e-01 7.625933e-01 3.975917e-01 -1.321069e-01 -6.306117e-01 -7.039095e-01 -9.487300e-01 -8.177507e-01 -8.707231e-01 -4.049034e-01 -6.761391e-01 -3.435623e-01 -2.584144e-01 3.852193e-02
<VARIANCE> 39
 1.624014e+01 2.808068e+01 1.680038e+01 2.101227e+01 2.031689e+01 2.547281e+01 2.371171e+01 2.740509e+01 2.564610e+01 2.529066e+01 2.930190e+01 2.773536e+01 2.230181e-02 1.303324e+00 1.515611e+00 1.300838e+00 1.449843e+00 1.955499e+00 2.461004e+00 2.588227e+00 2.150088e+00 2.146344e+00 2.321099e+00 2.635763e+00 2.778612e+00 1.556690e-03 1.525345e-01 2.832728e-01 2.634636e-01 3.362199e-01 3.788472e-01 3.753285e-01 4.376528e-01 4.788125e-01 5.467054e-01 4.607246e-01 3.681556e-01 4.199680e-01 3.150190e-04
<GCONST> 8.711139e+01
<MIXTURE> 2 1.050622e-01
<MEAN> 39
 -6.090150e-01 2.519527e-01 8.127941e+00 7.228983e+00 9.276361e+00 9.199760e+00 6.024220e+00 7.233986e+00 4.972960e+00 3.783785e+00 1.049767e+00 1.190354e+00 1.525166e-01 -7.963418e-01 -9.495291e-02 1.821446e-02 2.095539e-01 1.505388e-01 3.178741e-01 1.309006e-02 3.220564e-01 2.274284e-01 1.208469e-01 2.133823e-01 -2.955354e-02 4.419940e-03 -1.781431e-01 -3.988838e-02 -4.165562e-01 -2.393120e-01 -4.921302e-01 -4.092622e-01 -2.997634e-01 -3.182481e-01 -1.945169e-01 -5.793394e-02 1.476056e-01 -3.662357e-02 8.180205e-04
<VARIANCE> 39
 2.362391e+01 4.084023e+01 3.008249e+01 3.168435e+01 3.506051e+01 2.917664e+01 3.468087e+01 4.604762e+01 3.386425e+01 2.941543e+01 3.394988e+01 3.174072e+01 3.544213e-02 1.904688e+00 2.466258e+00 2.544172e+00 2.134756e+00 2.930558e+00 2.605893e+00 2.629191e+00 3.048498e+00 2.813450e+00 2.459437e+00 2.394552e+00 2.115136e+00 3.355427e-03 3.974067e-01 5.116668e-01 4.375686e-01 4.683823e-01 5.841308e-01 5.659879e-01 6.654648e-01 7.168689e-01 6.158784e-01 4.901224e-01 5.209439e-01 5.008852e-01 6.402189e-04
<GCONST> 1.005549e+02
<MIXTURE> 3 7.437903e-02
<MEAN> 39
 -2.898949e+00 -7.406983e-01 4.613925e+00 3.933697e+00 2.685472e+00 4.437061e+00 9.509950e-01 2.588560e+00 2.340283e+00 3.553897e+00 2.992058e+00 1.851344e+00 2.466849e-01 -2.691061e+00 -1.122571e+00 -8.781931e-01 1.113184e+00 9.572850e-01 2.144084e+00 2.464002e+00 2.810468e+00 1.712459e+00 1.608506e+00 3.988307e-01 -1.296368e-01 -9.916098e-02 3.067195e-01 5.258098e-01 -2.745812e-01 -2.044314e-01 -2.013591e-01 -2.872782e-01 -9.158339e-02 -3.681108e-02 -1.610534e-01 -3.310501e-01 -1.743425e-01 -1.972646e-01 3.699749e-02
<VARIANCE> 39
 1.836633e+01 4.044536e+01 2.013236e+01 2.893511e+01 2.381603e+01 3.011561e+01 3.166917e+01 3.160757e+01 3.987822e+01 3.423603e+01 3.827472e+01 3.304578e+01 2.354874e-02 1.784629e+00 2.488658e+00 3.199964e+00 2.591246e+00 2.925423e+00 3.164990e+00 3.012136e+00 3.425669e+00 3.957495e+00 3.928650e+00 4.244938e+00 4.064750e+00 2.773563e-03 3.168194e-01 5.102413e-01 3.777745e-01 5.279351e-01 4.205792e-01 5.262082e-01 5.499302e-01 6.211128e-01 7.176610e-01 6.629145e-01 6.151781e-01 6.170142e-01 4.041533e-04
<GCONST> 1.010803e+02
<MIXTURE> 4 6.442482e-02
<MEAN> 39
 -3.614454e+00 -4.700896e+00 1.798282e+00 4.591823e+00 5.419744e+00 4.947784e+00 4.313291e+00 3.377057e+00 3.240357e+00 2.958156e+00 3.494492e+00 1.691993e+00 1.096978e-01 4.687956e-01 8.927476e-01 2.041557e-01 2.397164e-03 -3.930277e-01 -4.950157e-01 -4.226883e-01 -5.443789e-01 -2.151546e-01 1.452381e-01 -1.395880e-01 -7.295690e-02 5.305601e-02 6.987161e-01 4.007037e-01 -1.387323e-01 -3.521126e-01 -4.823971e-01 -3.831596e-01 -3.334537e-01 -2.300858e-01 -3.590355e-01 -1.756605e-01 -2.696760e-01 1.251653e-02 4.736937e-02
<VARIANCE> 39
 1.507698e+01 4.683009e+01 3.610745e+01 3.351596e+01 3.238766e+01 4.769307e+01 3.794905e+01 4.576481e+01 4.099765e+01 3.550708e+01 3.945898e+01 2.666779e+01 3.253333e-02 2.513204e+00 3.935781e+00 2.985078e+00 3.437258e+00 3.407513e+00 3.767790e+00 4.544456e+00 4.244390e+00 4.197326e+00 3.563775e+00 3.899746e+00 2.747342e+00 7.934424e-03 3.667437e-01 7.328317e-01 5.481103e-01 5.773477e-01 6.818408e-01 8.736240e-01 7.939407e-01 8.309492e-01 7.948462e-01 7.629385e-01 7.507467e-01 5.655575e-01 8.836762e-04
<GCONST> 1.095397e+02
<MIXTURE> 5 1.982044e-01
<MEAN> 39
 -2.106968e+00 1.178531e-01 2.304393e+00 2.883279e+00 2.739770e+00 3.983656e+00 1.557209e+00 3.272118e+00 3.603509e+00 1.254358e+00 1.974598e+00 8.950766e-01 -5.791768e-02 2.957461e-02 2.029958e-01 1.238680e-01 1.221550e-02 -5.207809e-02 8.010015e-02 5.404765e-02 5.260489e-02 -5.122361e-03 -1.353092e-02 -2.337421e-02 -1.772028e-02 -4.935748e-03 3.059337e-02 4.941921e-03 2.321820e-02 2.960229e-02 1.875923e-02 9.963796e-03 -3.163471e-03 -5.564684e-04 -1.268664e-02 2.845783e-02 2.198672e-02 1.860258e-02 8.365776e-03
<VARIANCE> 39
 7.064682e+00 3.815707e+01 1.583541e+01 1.992184e+01 1.789664e+01 2.223220e+01 2.314436e+01 2.901230e+01 1.770607e+01 2.333550e+01 2.204402e+01 1.603850e+01 8.105095e-03 2.476222e-01 6.503170e-01 6.016744e-01 8.903154e-01 1.132557e+00 1.287947e+00 1.322619e+00 1.501481e+00 1.408656e+00 1.614763e+00 1.462710e+00 1.240519e+00 2.355975e-04 8.075845e-02 1.334581e-01 1.207273e-01 1.627365e-01 2.372527e-01 2.812038e-01 2.786433e-01 3.042560e-01 3.178321e-01 3.154500e-01 2.895944e-01 2.486591e-01 1.836406e-04
<GCONST> 6.710928e+01
<MIXTURE> 6 1.386347e-01
<MEAN> 39
 -2.605129e+00 3.990548e-01 3.514558e+00 6.481612e+00 3.428047e+00 5.808980e+00 3.425785e+00 3.420921e+00 2.501986e+00 7.628661e-01 1.080761e+00 6.096310e-01 4.002882e-01 -3.111371e+00 -2.337482e+00 -2.497706e+00 -6.211555e-01 -1.394283e-01 2.412080e-01 4.745887e-01 1.228430e+00 8.336419e-01 7.036338e-01 1.307901e+00 8.050844e-01 -1.287316e-01 6.924924e-02 3.583404e-02 -2.986873e-01 -7.130805e-01 -5.216473e-01 -5.665700e-01 -3.038946e-01 -3.041693e-01 7.452910e-02 1.046573e-01 -1.082278e-01 4.263129e-02 1.724507e-02
<VARIANCE> 39
 2.674330e+01 4.258238e+01 2.359447e+01 2.555508e+01 2.799804e+01 3.193942e+01 3.699431e+01 4.063301e+01 2.933467e+01 3.200297e+01 2.709343e+01 2.071374e+01 1.659891e-02 1.491874e+00 1.580579e+00 1.680462e+00 1.959721e+00 2.167182e+00 2.442059e+00 2.670959e+00 2.784027e+00 2.721269e+00 2.945706e+00 2.646081e+00 2.471781e+00 9.942799e-04 3.825061e-01 4.760617e-01 3.299098e-01 4.213675e-01 4.595732e-01 4.923255e-01 5.544077e-01 5.624130e-01 5.326588e-01 5.465893e-01 5.609922e-01 4.409064e-01 2.909349e-04
<GCONST> 9.397150e+01
<MIXTURE> 7 6.437486e-02
<MEAN> 39
 -3.619572e+00 -4.721333e+00 1.793658e+00 4.583521e+00 5.421507e+00 4.952798e+00 4.324267e+00 3.372845e+00 3.222197e+00 2.931295e+00 3.490141e+00 1.687339e+00 1.102281e-01 4.654500e-01 8.935176e-01 2.056321e-01 2.166087e-03 -3.940312e-01 -4.935791e-01 -4.213538e-01 -5.419254e-01 -2.114597e-01 1.474510e-01 -1.369298e-01 -7.389887e-02 5.288243e-02 6.990079e-01 4.026730e-01 -1.378437e-01 -3.510872e-01 -4.822759e-01 -3.833992e-01 -3.350302e-01 -2.296834e-01 -3.564346e-01 -1.727268e-01 -2.694589e-01 1.219172e-02 4.731233e-02
<VARIANCE> 39
 1.509513e+01 4.694990e+01 3.619215e+01 3.362796e+01 3.244695e+01 4.798909e+01 3.802337e+01 4.592904e+01 4.113119e+01 3.587321e+01 3.978128e+01 2.675248e+01 3.251930e-02 2.513839e+00 3.926095e+00 2.981770e+00 3.437935e+00 3.401971e+00 3.771219e+00 4.546440e+00 4.248023e+00 4.201489e+00 3.575174e+00 3.904980e+00 2.752778e+00 7.928144e-03 3.674024e-01 7.329530e-01 5.488796e-01 5.787473e-01 6.840753e-01 8.786144e-01 7.942320e-01 8.337443e-01 7.992218e-01 7.720383e-01 7.554385e-01 5.675659e-01 8.861998e-04
<GCONST> 1.096397e+02
<MIXTURE> 8 4.949576e-02
<MEAN> 39
 4.007868e-01 4.505407e+00 6.883689e+00 4.163997e+00 1.272507e+00 1.321100e+00 -2.520521e+00 2.211074e+00 3.588542e+00 4.888903e+00 5.928844e+00 5.727229e+00 3.170237e-01 2.603492e+00 1.948147e+00 -8.682058e-01 -2.174573e+00 -2.579604e+00 -3.084448e+00 -2.810691e+00 -2.135587e+00 -1.591566e+00 -7.723498e-01 -9.044972e-02 3.379112e-01 1.955167e-01 -1.471253e-01 -2.115183e-01 -5.897167e-01 -5.791333e-01 8.058437e-02 7.038819e-02 3.656541e-01 2.413915e-01 -2.155234e-01 -4.587212e-01 -5.046075e-01 -5.966807e-01 3.590814e-03
<VARIANCE> 39
 2.966553e+01 4.095162e+01 3.592678e+01 3.030291e+01 2.776255e+01 3.885823e+01 3.791088e+01 3.652436e+01 4.121568e+01 3.507904e+01 3.745433e+01 2.953570e+01 4.125204e-02 1.938259e+00 3.621270e+00 3.838663e+00 3.115976e+00 3.090086e+00 3.486299e+00 4.309821e+00 4.202292e+00 3.529909e+00 3.626273e+00 4.377048e+00 4.004635e+00 2.507754e-03 4.406827e-01 2.968502e-01 4.924688e-01 5.827904e-01 5.111471e-01 6.177022e-01 7.136571e-01 6.017082e-01 7.532762e-01 6.594716e-01 5.415903e-01 5.381725e-01 5.231659e-04
<GCONST> 1.054466e+02
<MIXTURE> 9 7.436471e-02
<MEAN> 39
 -2.899564e+00 -7.411317e-01 4.613264e+00 3.931678e+00 2.684843e+00 4.437452e+00 9.528787e-01 2.591424e+00 2.344872e+00 3.557085e+00 2.993437e+00 1.851665e+00 2.466063e-01 -2.690365e+00 -1.122311e+00 -8.773171e-01 1.113238e+00 9.574414e-01 2.143684e+00 2.463469e+00 2.809674e+00 1.711668e+00 1.607598e+00 3.980687e-01 -1.301048e-01 -9.915199e-02 3.068714e-01 5.257336e-01 -2.743091e-01 -2.040904e-01 -2.011575e-01 -2.872744e-01 -9.189336e-02 -3.731229e-02 -1.616986e-01 -3.314756e-01 -1.745036e-01 -1.972278e-01 3.699658e-02
<VARIANCE> 39
 1.836831e+01 4.044776e+01 2.013773e+01 2.894041e+01 2.382502e+01 3.011953e+01 3.167428e+01 3.161583e+01 3.990095e+01 3.424824e+01 3.828134e+01 3.305568e+01 2.355158e-02 1.784502e+00 2.488212e+00 3.200099e+00 2.591701e+00 2.925594e+00 3.164881e+00 3.011995e+00 3.425019e+00 3.957842e+00 3.928909e+00 4.245426e+00 4.066082e+00 2.773456e-03 3.167402e-01 5.102071e-01 3.777411e-01 5.278513e-01 4.206396e-01 5.262975e-01 5.499866e-01 6.211293e-01 7.180014e-01 6.631186e-01 6.152895e-01 6.173168e-01 4.042607e-04
<GCONST> 1.010852e+02
<MIXTURE> 10 1.668875e-01
<MEAN> 39
 -2.108080e+00 -2.732185e+00 -7.635044e-01 -3.922021e-01 1.234655e+00 1.589802e+00 1.833137e+00 2.842166e+00 3.357528e+00 1.875533e+00 2.347790e+00 1.507318e+00 1.420693e-01 -1.213210e+00 -9.173299e-01 -5.984535e-01 -2.080145e-01 -2.164003e-01 -4.529024e-02 9.952997e-02 1.587391e-01 2.305247e-01 2.988974e-01 2.969915e-01 1.446901e-01 -7.586268e-02 3.976033e-01 4.838130e-01 4.234023e-01 3.934254e-01 2.172299e-01 1.027717e-01 -8.342463e-02 -1.862664e-01 -1.605927e-01 -1.695490e-01 -2.861461e-01 -1.544830e-01 3.365358e-02
<VARIANCE> 39
 1.440670e+01 5.269260e+01 2.594829e+01 3.302991e+01 3.577881e+01 3.168518e+01 4.002086e+01 4.091932e+01 4.157526e+01 3.802297e+01 3.733088e+01 2.970154e+01 2.607885e-02 1.015203e+00 1.791255e+00 1.709739e+00 2.171802e+00 2.335055e+00 2.553662e+00 2.276092e+00 2.628398e+00 2.893677e+00 2.556615e+00 2.576610e+00 2.295351e+00 2.628416e-03 1.929515e-01 3.191205e-01 2.840943e-01 3.305765e-01 4.471664e-01 4.967502e-01 4.954985e-01 5.896326e-01 6.208212e-01 5.544481e-01 5.585216e-01 5.097404e-01 5.039227e-04
<GCONST> 9.574498e+01
~h "#i"
<BEGINHMM>
<NUMSTATES> 15
<STATE> 2
<NUMMIXES> 10
<MIXTURE> 1 2.389369e-02
<MEAN> 39
 -5.683218e+00 1.010965e+01 -4.687712e+00 -3.537465e+00 -6.240896e+00 -3.852953e+00 1.949944e+00 2.222136e+00 1.012763e+01 1.145639e+01 9.665548e+00 8.529772e+00 8.916171e-01 -9.995471e-01 -1.311248e-01 -9.103934e-02 -1.633159e-01 -2.471030e-01 6.752799e-02 -5.486420e-01 -2.368299e-01 1.945759e+00 3.025231e+00 2.172979e+00 1.584980e+00 3.344503e-02 5.370445e-01 -1.091786e-01 3.384969e-01 1.805201e-01 2.836925e-01 4.614716e-01 4.106532e-01 4.202718e-01 -1.665091e-01 -5.708252e-01 -1.004137e+00 -1.068621e+00 -2.251919e-02
<VARIANCE> 39
 1.322533e+01 2.507036e+01 1.756562e+01 2.560651e+01 1.148021e+01 7.920188e+00 2.784268e+01 2.484225e+01 6.586803e+01 6.535067e+01 3.047639e+01 9.033504e+01 3.080507e-03 7.666528e-01 7.312348e-01 9.132308e-01 1.200212e+00 8.426234e-01 8.300052e-01 1.854029e+00 1.455057e+00 2.900437e+00 2.620913e+00 5.222021e+00 3.745817e+00 3.439538e-04 1.236065e-01 1.545709e-01 3.250162e-01 3.556531e-01 3.042232e-01 2.955710e-01 3.836822e-01 2.345429e-01 8.069823e-01 1.055049e+00 6.714928e-01 4.988740e-01 2.879425e-04
<GCONST> 8.197935e+01
<MIXTURE> 2 5.266818e-02
<MEAN> 39
 -9.495921e-02 6.489229e+00 -4.247300e+00 -3.851940e+00 -5.810041e+00 -5.533821e+00 -1.979326e+00 -2.516540e+00 3.798662e+00 2.070254e+00 6.013658e+00 4.354879e+00 6.495470e-01 -2.585263e-01 1.260532e+00 9.428058e-02 5.592069e-01 -8.478084e-01 -2.027664e-02 -1.344396e+00 -9.843000e-01 -9.189286e-01 -4.694205e-01 -2.878122e-01 -3.817610e-01 3.448096e-02 2.883327e-02 6.690585e-02 2.931297e-01 1.138653e-01 1.586184e-01 3.421761e-01 1.266043e-01 5.312606e-01 6.400432e-02 9.562693e-02 -3.077066e-01 -2.505505e-01 3.863375e-04
<VARIANCE> 39
 1.536878e+01 4.109615e+01 4.491604e+01 2.271759e+01 3.081990e+01 2.621845e+01 3.528905e+01 5.230686e+01 5.757541e+01 9.507893e+01 9.018219e+01 9.814568e+01 3.596092e-02 1.416329e+00 4.024816e+00 1.997804e+00 3.009927e+00 1.710087e+00 3.496215e+00 3.702369e+00 6.386586e+00 8.281919e+00 7.048604e+00 9.091692e+00 8.822823e+00 1.920850e-03 2.241919e-01 6.759830e-01 4.370186e-01 5.267787e-01 4.175443e-01 8.045895e-01 5.136510e-01 6.774237e-01 1.183072e+00 1.155772e+00 1.507771e+00 1.439554e+00 2.919704e-04
<GCONST> 1.117689e+02
<MIXTURE> 3 1.737896e-01
<MEAN> 39
 1.838951e+00 1.245867e+01 -1.931979e+00 -1.297107e+00 -3.960747e+00 -3.478312e+00 -1.217055e+00 1.291661e+00 -2.744683e-01 1.103148e+00 -5.508128e-01 1.065411e+00 6.985173e-01 9.361500e-02 9.627839e-01 -8.741108e-02 4.269497e-01 -7.461831e-01 -6.890590e-02 -6.771171e-01 -3.229310e-01 -6.463208e-01 -1.124634e-01 -3.952694e-01 4.025939e-01 1.412054e-02 -1.325620e-01 -2.657717e-01 -1.397353e-02 -2.583633e-01 -2.797667e-03 -1.790890e-01 -1.392483e-01 -1.179414e-01 -1.129287e-01 -2.509738e-01 -1.261282e-01 -7.655802e-02 9.115595e-03
<VARIANCE> 39
 1.226007e+01 2.513609e+01 2.441412e+01 2.546168e+01 2.174236e+01 1.831194e+01 5.378189e+01 2.740077e+01 3.342428e+01 3.781198e+01 5.369011e+01 5.544848e+01 1.493125e-02 5.926894e-01 1.211370e+00 1.054124e+00 1.593573e+00 1.385619e+00 1.980219e+00 2.017149e+00 2.062926e+00 2.377685e+00 2.076806e+00 3.030161e+00 2.628938e+00 7.853801e-04 1.016224e-01 2.407134e-01 2.263787e-01 3.054250e-01 2.944216e-01 3.463424e-01 3.980258e-01 3.554308e-01 4.355122e-01 4.636886e-01 5.140746e-01 5.633332e-01 7.922744e-05
<GCONST> 8.430095e+01
<MIXTURE> 4 6.466903e-02
<MEAN> 39
 9.380317e-01 1.107651e+01 -2.020617e+00 -2.950851e+00 -6.705653e+00 -4.198358e+00 -4.336969e+00 1.251511e+00 -2.048107e+00 -1.264004e+00 -3.187720e-01 -2.196160e-01 7.717897e-01 -8.922887e-01 1.090091e+00 -4.357396e-01 -4.852999e-01 -5.722120e-01 -5.030505e-01 -1.094769e+00 -5.960882e-01 -1.053638e+00 -1.134570e+00 -3.196007e-01 -5.573809e-01 6.972477e-02 -3.180120e-01 -9.204463e-01 2.971509e-01 4.905683e-01 6.808746e-01 6.108263e-01 5.004703e-01 1.465846e-01 4.194143e-01 2.897905e-01 2.097093e-01 2.284682e-01 -3.632969e-02
<VARIANCE> 39
 1.381982e+01 5.264576e+01 1.756595e+01 1.774039e+01 2.086314e+01 2.967036e+01 4.515456e+01 3.018816e+01 2.311749e+01 3.555896e+01 3.411513e+01 4.556900e+01 1.271246e-02 8.596752e-01 2.865041e+00 1.017225e+00 1.940126e+00 2.029732e+00 1.821805e+00 2.020006e+00 3.284835e+00 2.445805e+00 1.981266e+00 5.436917e+00 4.655651e+00 1.596063e-03 2.116231e-01 4.124848e-01 2.947051e-01 3.074267e-01 3.313377e-01 4.615991e-01 4.996872e-01 4.769927e-01 3.240442e-01 4.456149e-01 5.021214e-01 5.928310e-01 3.928243e-04
<GCONST> 9.135992e+01
<MIXTURE> 5 1.738839e-01
<MEAN> 39
 1.847576e+00 1.246068e+01 -1.930709e+00 -1.295714e+00 -3.949500e+00 -3.471539e+00 -1.192608e+00 1.301689e+00 -2.633328e-01 1.124282e+00 -5.459511e-01 1.091938e+00 6.983442e-01 9.390950e-02 9.628344e-01 -8.828561e-02 4.241066e-01 -7.455710e-01 -7.144089e-02 -6.749481e-01 -3.237787e-01 -6.433753e-01 -1.128170e-01 -3.955012e-01 4.023096e-01 1.418554e-02 -1.334470e-01 -2.657509e-01 -1.544662e-02 -2.578921e-01 -4.007749e-03 -1.800743e-01 -1.412638e-01 -1.193984e-01 -1.145074e-01 -2.529733e-01 -1.272253e-01 -7.873873e-02 9.124164e-03
<VARIANCE> 39
 1.225239e+01 2.511334e+01 2.440773e+01 2.540331e+01 2.171055e+01 1.828478e+01 5.367876e+01 2.739347e+01 3.340692e+01 3.777654e+01 5.356085e+01 5.542940e+01 1.493019e-02 5.922337e-01 1.210988e+00 1.052326e+00 1.589898e+00 1.383870e+00 1.975404e+00 2.017351e+00 2.059541e+00 2.375648e+00 2.077351e+00 3.027406e+00 2.624375e+00 7.876126e-04 1.015929e-01 2.404417e-01 2.259226e-01 3.044335e-01 2.943353e-01 3.459650e-01 3.973927e-01 3.550654e-01 4.351629e-01 4.627943e-01 5.138604e-01 5.634424e-01 7.928542e-05
<GCONST> 8.426377e+01
<MIXTURE> 6 6.460068e-02
<MEAN> 39
 9.542148e-01 1.108909e+01 -1.983738e+00 -2.932324e+00 -6.705204e+00 -4.157973e+00 -4.362974e+00 1.275420e+00 -2.047186e+00 -1.265527e+00 -2.971763e-01 -2.346744e-01 7.709339e-01 -8.856702e-01 1.112599e+00 -4.348597e-01 -4.982925e-01 -5.838559e-01 -5.065212e-01 -1.104098e+00 -5.885713e-01 -1.048737e+00 -1.135355e+00 -3.103958e-01 -5.668133e-01 7.024818e-02 -3.211378e-01 -9.263710e-01 2.915023e-01 4.845193e-01 6.771325e-01 6.036935e-01 5.022370e-01 1.416991e-01 4.185030e-01 2.864915e-01 2.059442e-01 2.276222e-01 -3.633370e-02
<VARIANCE> 39
 1.382126e+01 5.271215e+01 1.752544e+01 1.772363e+01 2.085296e+01 2.962459e+01 4.512019e+01 3.020799e+01 2.313789e+01 3.544118e+01 3.409304e+01 4.515445e+01 1.274998e-02 8.606896e-01 2.910912e+00 1.021646e+00 1.946828e+00 2.058476e+00 1.828822e+00 2.031897e+00 3.290892e+00 2.440920e+00 1.983446e+00 5.418092e+00 4.611204e+00 1.646490e-03 2.117908e-01 4.145389e-01 2.940883e-01 3.077567e-01 3.308851e-01 4.627365e-01 5.013062e-01 4.805383e-01 3.245075e-01 4.455907e-01 5.040683e-01 5.888086e-01 3.942341e-04
<GCONST> 9.143268e+01
<MIXTURE> 7 6.464309e-02
<MEAN> 39
 9.900619e-01 1.112646e+01 -1.950041e+00 -2.920169e+00 -6.733304e+00 -4.149971e+00 -4.463081e+00 1.260469e+00 -2.066462e+00 -1.316701e+00 -2.691588e-01 -3.074859e-01 7.694731e-01 -8.730236e-01 1.156307e+00 -4.324196e-01 -5.188925e-01 -6.014944e-01 -5.121351e-01 -1.116209e+00 -5.672206e-01 -1.035214e+00 -1.130537e+00 -2.913415e-01 -5.900255e-01 7.109269e-02 -3.271995e-01 -9.328321e-01 2.846999e-01 4.772288e-01 6.736475e-01 5.977820e-01 5.102354e-01 1.395710e-01 4.200514e-01 2.862818e-01 2.011425e-01 2.318025e-01 -3.637749e-02
<VARIANCE> 39
 1.383872e+01 5.287188e+01 1.745833e+01 1.779449e+01 2.087100e+01 2.963907e+01 4.518858e+01 3.024240e+01 2.313293e+01 3.537743e+01 3.402874e+01 4.472408e+01 1.286186e-02 8.638139e-01 2.997240e+00 1.031935e+00 1.973474e+00 2.112945e+00 1.844532e+00 2.059956e+00 3.307898e+00 2.434963e+00 1.988741e+00 5.415092e+00 4.584069e+00 1.746535e-03 2.128825e-01 4.189044e-01 2.922995e-01 3.095232e-01 3.310673e-01 4.644498e-01 5.034045e-01 4.858146e-01 3.260825e-01 4.471457e-01 5.068852e-01 5.848163e-01 3.974362e-04
<GCONST> 9.164897e+01
<MIXTURE> 8 1.027312e-01
<MEAN> 39
 2.398291e+00 1.054825e+01 -3.899625e+00 -2.957607e+00 -4.908636e+00 -3.704787e+00 2.610586e+00 3.778900e+00 4.259898e+00 4.980889e+00 1.809494e+00 4.869721e+00 6.939248e-01 -2.779326e-01 2.061616e+00 -2.320788e+00 -1.929962e+00 -2.478307e+00 -2.779163e+00 -1.355474e+00 -2.142223e+00 -1.680246e+00 -1.065130e+00 -7.807325e-01 1.334175e+00 1.579834e-01 -6.022002e-01 -9.970723e-01 7.952541e-01 7.465604e-01 8.556191e-01 9.084698e-01 -1.409985e-01 -8.457311e-02 -3.749202e-01 -3.358861e-01 -1.097184e-01 -3.476916e-01 -4.365590e-02
<VARIANCE> 39
 1.412822e+01 5.066525e+01 2.316274e+01 2.270162e+01 2.561111e+01 2.300433e+01 2.788820e+01 2.571603e+01 3.661858e+01 2.988770e+01 3.661743e+01 4.261065e+01 1.824700e-02 2.211264e+00 4.067398e+00 2.510063e+00 2.012064e+00 2.199792e+00 2.518081e+00 2.500506e+00 2.105250e+00 3.211446e+00 4.064675e+00 6.361620e+00 6.204227e+00 3.523130e-03 1.826842e-01 3.669505e-01 3.478594e-01 3.921940e-01 4.457362e-01 3.649355e-01 4.721044e-01 3.885615e-01 4.895121e-01 5.777235e-01 7.046031e-01 6.062828e-01 3.820659e-04
<GCONST> 9.741163e+01
<MIXTURE> 9 4.067458e-02
<MEAN> 39
 8.484333e-01 4.865881e+00 -4.197157e+00 -4.684239e+00 -3.151914e+00 -9.762898e-01 5.809799e+00 6.527075e+00 5.079118e+00 2.606572e+00 9.067841e-01 -1.945343e+00 6.226827e-01 -3.253426e-01 2.128925e+00 -1.142159e+00 2.800530e-01 -1.186170e+00 -2.092873e+00 -1.467551e+00 -5.121233e-01 1.207822e-01 1.376166e+00 1.281634e+00 6.407499e-01 4.380922e-02 -7.975864e-02 -3.061135e-01 3.759885e-01 2.986803e-01 7.601574e-02 1.418531e-01 -7.087437e-01 -6.920781e-01 -4.378362e-01 -9.334447e-02 -5.280271e-03 4.116732e-01 6.087388e-03
<VARIANCE> 39
 1.542025e+01 5.749463e+01 3.112522e+01 3.151424e+01 2.626053e+01 6.780811e+01 7.657645e+01 4.566590e+01 1.036444e+02 1.711700e+02 1.476600e+02 8.577284e+01 2.821595e-02 1.267321e+00 4.398666e+00 2.998037e+00 4.299534e+00 3.108966e+00 6.984801e+00 7.271762e+00 8.200079e+00 9.415099e+00 1.229410e+01 9.524041e+00 1.026647e+01 7.732213e-03 2.953290e-01 5.834357e-01 5.284346e-01 9.630463e-01 6.761845e-01 1.047973e+00 1.216980e+00 9.421320e-01 1.902124e+00 2.770081e+00 2.058588e+00 1.754634e+00 7.102227e-04
<GCONST> 1.256269e+02
<MIXTURE> 10 2.384419e-01
<MEAN> 39
 -1.505358e+00 1.058030e+01 1.645459e+00 -7.050788e+00 -1.917535e+00 -7.757349e+00 -3.450039e+00 1.093112e+00 1.896014e+00 -9.614813e-01 2.029891e+00 -1.072675e-01 8.026487e-01 -5.206017e-01 2.561745e+00 -1.265555e+00 1.702505e+00 -3.709986e-01 -1.055606e+00 -1.065722e+00 -9.644626e-01 -7.028604e-01 -1.379259e+00 9.257417e-01 -3.777972e-01 -2.536011e-03 3.044833e-01 -7.555869e-01 -2.830318e-04 5.109579e-01 -6.518797e-01 6.769266e-01 2.269554e-01 8.544021e-03 -4.127219e-01 1.009666e-01 -3.521877e-01 -1.816114e-01 3.336607e-03
<VARIANCE> 39
 8.782877e+00 2.706914e+01 2.081212e+01 2.888747e+01 1.979546e+01 2.989851e+01 4.681184e+01 2.771565e+01 2.967393e+01 3.057071e+01 2.972534e+01 2.923195e+01 8.433909e-03 5.637068e-01 1.633837e+00 1.081805e+00 1.686008e+00 2.782511e+00 3.903996e+00 2.362915e+00 2.597113e+00 3.016540e+00 3.865295e+00 3.086603e+00 2.945723e+00 2.848989e-04 9.051498e-02 2.281784e-01 2.932757e-01 5.966479e-01 3.495359e-01 4.268788e-01 4.307639e-01 5.006229e-01 4.565223e-01 4.697767e-01 4.656701e-01 5.258943e-01 2.825643e-05
<GCONST> 8.463919e+01
<STATE> 3
<NUMMIXES> 10
<MIXTURE> 1 6.109472e-02
<MEAN> 39
 -3.523067e+00 8.410264e+00 -8.160419e+00 -4.259504e+00 -7.421374e+00 -6.917098e+00 -7.245421e-01 -2.083068e+00 3.068482e+00 5.176033e+00 8.280402e+00 1.418797e+01 8.821067e-01 -4.813140e-01 -6.708169e-02 -4.199719e-02 2.761747e-01 -2.143716e-01 -2.685994e-01 -8.203772e-01 -3.699854e-01 1.476192e-01 6.477927e-01 1.804095e+00 1.978118e+00 2.214636e-02 4.280309e-01 2.039996e-01 2.935212e-01 2.191800e-01 2.640169e-01 2.312561e-01 3.063437e-01 3.358780e-01 8.248615e-02 -1.250498e-01 -4.015307e-01 -6.798794e-01 -7.968226e-03
<VARIANCE> 39
 2.211088e+01 2.879803e+01 1.810509e+01 1.469799e+01 2.551557e+01 1.916717e+01 2.853258e+01 3.661341e+01 5.294789e+01 6.689586e+01 4.948136e+01 7.672288e+01 5.722496e-03 6.531652e-01 5.064367e-01 9.050775e-01 9.613608e-01 1.384992e+00 1.085904e+00 1.670503e+00 9.633024e-01 1.600041e+00 2.541913e+00 3.562591e+00 5.047690e+00 2.334758e-04 6.295243e-02 1.006571e-01 1.335950e-01 1.692338e-01 2.533074e-01 1.846111e-01 2.752109e-01 3.101700e-01 3.458067e-01 4.807929e-01 3.332483e-01 4.361249e-01 3.862702e-05
<GCONST> 7.542190e+01
<MIXTURE> 2 8.183876e-02
<MEAN> 39
 -2.474891e+00 1.077447e+01 -5.741704e+00 -3.373994e+00 -8.569179e+00 -8.847379e+00 -5.062376e+00 -4.492430e+00 -6.137556e+00 -4.022280e+00 -7.191384e+00 4.403029e-01 8.594850e-01 -2.971943e-01 -2.502033e-01 -2.081591e-01 2.625148e-01 -2.404681e-01 -1.859125e-01 -6.923646e-01 -8.730727e-01 -6.340996e-01 -6.933150e-01 -5.893074e-01 -1.720680e-01 1.840550e-02 3.417732e-01 1.736073e-01 4.228920e-01 2.973567e-01 4.884241e-01 5.017714e-01 5.357100e-01 6.208012e-01 6.555412e-01 6.179000e-01 6.224728e-01 3.580162e-01 -5.700485e-03
<VARIANCE> 39
 1.231492e+01 2.956883e+01 1.456056e+01 1.720939e+01 1.543873e+01 1.835696e+01 2.565162e+01 2.493590e+01 2.301654e+01 2.165314e+01 2.777609e+01 3.520998e+01 8.097908e-03 4.097371e-01 4.124514e-01 6.613033e-01 1.063962e+00 1.025082e+00 1.045205e+00 1.322190e+00 1.341975e+00 1.210731e+00 1.517057e+00 1.970302e+00 2.067440e+00 1.933665e-04 6.396749e-02 1.028184e-01 1.000199e-01 1.738950e-01 1.495972e-01 1.994106e-01 2.068749e-01 2.091680e-01 1.849985e-01 2.184086e-01 3.245386e-01 3.153065e-01 5.261680e-05
<GCONST> 6.439244e+01
<MIXTURE> 3 9.426370e-02
<MEAN> 39
 -3.715374e-01 1.156865e+01 -1.608540e+00 -1.489828e+00 -6.064240e+00 -5.286075e+00 -4.575256e+00 -1.330921e+00 -4.246286e+00 -1.984875e+00 -2.379668e+00 -4.352043e-02 8.340547e-01 1.229470e-01 8.847242e-01 1.175822e-01 7.261545e-01 -5.252264e-02 1.852089e-02 -3.761888e-02 -8.603799e-02 -5.464274e-02 4.970557e-02 -7.206661e-02 7.531177e-01 9.770557e-03 2.822178e-02 -1.287817e-01 -3.400004e-02 -2.173634e-01 1.749827e-01 -2.447992e-02 5.008212e-02 1.510619e-01 3.300720e-01 1.436470e-01 1.514218e-01 -8.763602e-02 -3.428551e-04
<VARIANCE> 39
 1.018061e+01 2.928926e+01 2.321159e+01 2.108181e+01 2.528979e+01 3.861775e+01 3.285008e+01 3.208792e+01 2.082525e+01 2.137324e+01 4.348463e+01 3.664517e+01 6.556280e-03 2.998263e-01 6.954633e-01 1.200940e+00 1.312461e+00 1.566593e+00 1.641618e+00 1.571588e+00 1.817281e+00 2.131532e+00 2.429081e+00 1.792655e+00 1.703179e+00 1.634464e-04 5.302555e-02 1.152868e-01 1.687679e-01 2.352389e-01 2.924954e-01 3.881494e-01 3.205645e-01 3.599948e-01 3.882844e-01 3.056216e-01 3.261298e-01 3.401714e-01 2.421069e-05
<GCONST> 7.316239e+01
<MIXTURE> 4 5.309484e-02
<MEAN> 39
 9.620156e-01 1.280117e+01 -1.522394e+00 -3.250955e+00 -4.261421e+00 -3.733872e+00 -5.532862e+00 7.940947e-01 -6.594206e-01 -5.170837e-01 2.465677e+00 -5.044369e-01 7.957421e-01 -8.322793e-01 3.141811e-01 -2.058754e-01 -3.146970e-01 -2.830401e-01 -4.842330e-01 -3.495151e-01 -2.637101e-01 -2.663896e-01 -3.806939e-01 -3.614380e-02 -2.256302e-01 4.583285e-02 -1.638133e-01 -5.772321e-01 1.828824e-01 3.040111e-01 1.018101e-01 1.439619e-01 2.403131e-01 -3.526794e-03 5.937646e-02 6.581659e-02 -7.993640e-02 6.984601e-02 -1.782882e-02
<VARIANCE> 39
 1.048651e+01 5.150949e+01 1.739081e+01 2.084054e+01 1.842220e+01 2.538477e+01 4.976845e+01 2.683899e+01 2.763089e+01 3.245239e+01 3.041133e+01 4.201500e+01 1.294178e-02 1.166925e+00 1.024652e+00 1.590888e+00 1.392771e+00 1.362549e+00 1.422273e+00 1.823355e+00 1.823160e+00 2.020263e+00 1.543760e+00 1.258988e+00 1.374830e+00 9.236523e-04 1.666020e-01 3.239532e-01 1.834261e-01 2.035411e-01 2.774057e-01 2.481289e-01 2.723370e-01 4.028077e-01 2.283823e-01 2.072459e-01 3.286922e-01 4.023516e-01 3.549733e-04
<GCONST> 8.023685e+01
<MIXTURE> 5 9.424503e-02
<MEAN> 39
 -3.707498e-01 1.156697e+01 -1.608012e+00 -1.486030e+00 -6.062034e+00 -5.278738e+00 -4.572906e+00 -1.335580e+00 -4.245436e+00 -1.985153e+00 -2.380016e+00 -3.768271e-02 8.340312e-01 1.231140e-01 8.840868e-01 1.177178e-01 7.258033e-01 -5.159545e-02 1.892130e-02 -3.735642e-02 -8.555876e-02 -5.415824e-02 4.972448e-02 -7.169528e-02 7.535158e-01 9.781155e-03 2.818363e-02 -1.285790e-01 -3.420622e-02 -2.174823e-01 1.745724e-01 -2.547284e-02 5.006575e-02 1.514417e-01 3.300237e-01 1.435714e-01 1.515039e-01 -8.803841e-02 -3.447753e-04
<VARIANCE> 39
 1.017616e+01 2.930154e+01 2.319433e+01 2.107133e+01 2.529873e+01 3.860965e+01 3.284119e+01 3.204149e+01 2.082173e+01 2.136055e+01 4.349377e+01 3.664064e+01 6.558346e-03 2.997981e-01 6.947700e-01 1.200065e+00 1.311267e+00 1.565879e+00 1.640707e+00 1.569641e+00 1.816472e+00 2.131076e+00 2.427134e+00 1.793223e+00 1.702198e+00 1.634354e-04 5.305865e-02 1.151859e-01 1.686456e-01 2.352451e-01 2.924375e-01 3.874940e-01 3.202295e-01 3.593201e-01 3.883102e-01 3.055086e-01 3.260013e-01 3.399826e-01 2.421891e-05
<GCONST> 7.314574e+01
<MIXTURE> 6 5.039130e-02
<MEAN> 39
 1.253909e+00 1.350508e+01 -2.470215e+00 -1.861921e+00 -3.955857e+00 -5.126915e+00 -4.828849e+00 3.397378e+00 -3.051189e+00 1.628937e+00 -1.155231e+00 1.026442e+00 7.889760e-01 -4.752081e-01 3.845944e-01 -1.376067e-01 3.390018e-02 -1.938354e-01 -3.995100e-01 -7.371413e-01 -2.205764e-01 -3.602901e-01 -6.510533e-02 -4.755289e-01 -1.763423e-01 2.858932e-02 -6.723566e-02 -2.820947e-01 4.018632e-02 4.499612e-02 -8.215751e-02 -1.188451e-02 1.433061e-01 -2.509414e-01 -3.504122e-02 -9.643320e-02 9.811946e-02 3.199235e-02 -3.891996e-03
<VARIANCE> 39
 8.065286e+00 3.323940e+01 1.366718e+01 1.509940e+01 1.376548e+01 2.193653e+01 4.147710e+01 2.260076e+01 2.905794e+01 2.849500e+01 2.330059e+01 3.538013e+01 1.025059e-02 4.975384e-01 5.989034e-01 5.499811e-01 6.745285e-01 9.422274e-01 1.301712e+00 1.220321e+00 1.433816e+00 1.241895e+00 1.278434e+00 1.227456e+00 9.632919e-01 2.347433e-04 8.731499e-02 1.368148e-01 1.020837e-01 1.489055e-01 1.783093e-01 1.713772e-01 2.925033e-01 2.285571e-01 2.119834e-01 2.581372e-01 2.675205e-01 3.334263e-01 8.217154e-05
<GCONST> 6.530267e+01
<MIXTURE> 7 6.759208e-02
<MEAN> 39
 1.248935e+00 1.487004e+01 -2.567397e+00 -1.245299e+00 -4.266152e+00 -5.879204e+00 -5.210773e+00 4.024662e+00 -3.778714e+00 2.277644e+00 -2.107892e+00 1.954754e+00 7.758453e-01 -3.583613e-01 3.697785e-01 -1.339043e-01 4.149042e-02 -2.550521e-01 -3.963718e-01 -8.201237e-01 -2.146405e-01 -2.276449e-01 4.398834e-02 -5.689561e-01 -2.545674e-01 2.416257e-02 -5.715992e-02 -2.604480e-01 -1.262020e-02 -7.193965e-02 -1.062944e-01 -2.899812e-02 1.459782e-01 -2.728267e-01 -8.241116e-02 -1.955193e-01 7.637241e-02 -5.734348e-02 -1.318172e-03
<VARIANCE> 39
 7.052473e+00 2.573774e+01 1.128992e+01 1.709474e+01 1.369388e+01 1.990545e+01 4.041658e+01 2.299783e+01 3.138581e+01 3.137688e+01 2.258887e+01 3.751976e+01 8.644974e-03 3.772789e-01 5.231167e-01 5.126214e-01 6.257016e-01 8.846458e-01 1.336827e+00 1.130130e+00 1.334013e+00 1.141159e+00 1.224311e+00 1.220376e+00 1.073418e+00 1.984772e-04 7.129335e-02 9.575086e-02 1.006813e-01 1.665180e-01 1.704497e-01 1.721049e-01 2.777391e-01 1.932315e-01 2.279301e-01 2.599047e-01 2.594592e-01 3.519900e-01 4.548484e-05
<GCONST> 6.261889e+01
<MIXTURE> 8 1.476312e-01
<MEAN> 39
 3.844346e-01 1.328292e+01 -3.731335e+00 -8.665966e-01 -5.802526e+00 -5.810942e+00 -1.304020e-01 -5.449758e-01 -1.659766e+00 5.158646e-01 -4.461131e+00 5.030597e+00 8.211872e-01 -9.585515e-01 -6.970515e-01 -9.750692e-01 -5.005493e-01 -1.027012e+00 -1.187459e+00 -1.580927e+00 -1.585936e+00 -1.467680e+00 -1.621068e+00 -1.407100e+00 -7.577640e-01 3.136987e-02 3.240995e-02 -1.895501e-01 3.975560e-02 -1.415514e-02 7.973538e-02 1.374556e-02 -3.590099e-02 -1.397421e-02 2.212847e-02 2.086887e-02 9.700791e-02 -4.638602e-02 -5.925605e-03
<VARIANCE> 39
 1.652730e+01 2.496331e+01 1.636300e+01 1.549777e+01 1.145968e+01 1.402451e+01 1.901261e+01 2.765026e+01 1.930300e+01 2.319822e+01 2.200761e+01 1.740923e+01 7.726422e-03 4.209998e-01 4.603353e-01 5.833075e-01 8.719885e-01 1.055713e+00 1.100201e+00 1.005708e+00 1.214874e+00 1.028387e+00 1.466776e+00 1.989854e+00 2.412562e+00 2.742796e-04 1.114338e-01 1.052787e-01 1.156637e-01 1.440507e-01 1.837028e-01 1.938809e-01 2.168441e-01 2.302374e-01 2.503560e-01 2.498244e-01 2.775505e-01 2.581166e-01 4.522814e-05
<GCONST> 6.329684e+01
<MIXTURE> 9 8.143055e-02
<MEAN> 39
 -2.484494e+00 1.075064e+01 -5.733904e+00 -3.635197e+00 -8.602047e+00 -8.849817e+00 -4.864537e+00 -4.298507e+00 -5.967355e+00 -3.998589e+00 -7.012808e+00 6.741705e-02 8.586522e-01 -3.375401e-01 -2.345871e-01 -1.890028e-01 3.308699e-01 -2.022144e-01 -1.141182e-01 -6.413850e-01 -9.157854e-01 -6.725844e-01 -7.194658e-01 -6.028930e-01 -9.721442e-02 1.864076e-02 3.383129e-01 1.447195e-01 4.354669e-01 3.131869e-01 5.162719e-01 5.256677e-01 5.094140e-01 6.268323e-01 6.667165e-01 6.335295e-01 6.353855e-01 3.822777e-01 -6.241960e-03
<VARIANCE> 39
 1.242705e+01 3.045714e+01 1.508093e+01 1.810071e+01 1.712647e+01 2.081947e+01 2.812930e+01 2.566591e+01 2.416915e+01 2.146365e+01 2.851695e+01 3.757312e+01 8.136179e-03 4.307061e-01 4.419238e-01 6.875865e-01 1.135935e+00 1.096166e+00 1.108554e+00 1.369056e+00 1.455139e+00 1.274508e+00 1.591506e+00 2.157826e+00 2.653034e+00 2.144258e-04 7.122204e-02 1.096908e-01 1.149578e-01 1.939649e-01 1.728835e-01 2.312474e-01 2.236060e-01 2.157723e-01 1.991400e-01 2.222981e-01 3.402002e-01 3.409657e-01 7.547873e-05
<GCONST> 6.741116e+01
<MIXTURE> 10 2.684169e-01
<MEAN> 39
 -1.722391e+00 1.559856e+01 1.511647e+00 -2.865928e+00 -6.031437e+00 -4.614067e+00 -1.090349e+01 3.161210e-01 -3.513370e-01 -4.176718e+00 5.514596e+00 -3.606839e+00 8.272576e-01 -3.430347e-01 6.583856e-01 -2.322636e-01 3.234622e-01 -3.159181e-01 6.091272e-02 -3.773265e-01 -9.569304e-02 -3.685154e-01 -5.018360e-01 2.149888e-01 -5.344583e-01 1.424493e-02 1.168217e-01 -2.842624e-01 5.233837e-02 -1.450864e-01 7.311309e-02 5.891500e-02 1.944636e-01 1.356056e-02 2.037024e-02 1.616752e-01 -1.954740e-01 1.610091e-01 -2.093002e-03
<VARIANCE> 39
 7.600988e+00 2.416855e+01 1.344006e+01 1.605509e+01 1.897177e+01 1.961499e+01 2.127806e+01 2.126444e+01 2.236884e+01 3.368833e+01 1.321091e+01 1.264937e+01 5.371618e-03 3.863106e-01 5.335540e-01 4.624323e-01 8.641155e-01 6.825239e-01 8.635257e-01 9.817432e-01 1.221731e+00 1.218347e+00 8.430471e-01 9.159051e-01 1.096937e+00 2.298044e-04 5.440536e-02 8.939900e-02 1.017139e-01 1.562642e-01 1.440504e-01 1.483526e-01 1.460572e-01 1.930796e-01 1.686700e-01 2.052528e-01 1.346547e-01 1.407359e-01 2.874963e-05
<GCONST> 5.495729e+01
<STATE> 4
<NUMMIXES> 10
<MIXTURE> 1 7.829862e-02
<MEAN> 39
 -1.088011e+00 1.281174e+01 -3.627262e+00 -2.141355e+00 -6.532031e+00 -6.409966e+00 -4.831155e+00 -2.196891e+00 8.565529e-01 -1.007659e+00 2.249727e+00 1.879380e+00 8.730872e-01 3.971208e-02 5.271255e-01 2.051356e-01 4.600939e-01 2.850723e-01 4.829270e-01 3.166750e-01 9.186066e-02 1.928712e-01 1.819289e-01 4.826876e-01 2.102352e-01 1.216492e-02 9.945206e-02 -1.173787e-01 1.279946e-01 -2.461002e-02 1.353792e-01 1.889922e-01 1.241595e-01 1.757997e-01 4.503774e-02 4.459184e-02 -1.085567e-01 -6.795091e-02 -4.902364e-03
<VARIANCE> 39
 1.781943e+01 3.617006e+01 3.587160e+01 2.424273e+01 2.341327e+01 3.101836e+01 4.702714e+01 3.779837e+01 6.366550e+01 8.034213e+01 7.440372e+01 1.067947e+02 9.163154e-03 7.034387e-01 9.497905e-01 1.291762e+00 1.301586e+00 1.894899e+00 1.674342e+00 2.210375e+00 1.715680e+00 1.694709e+00 2.679489e+00 2.265620e+00 3.180146e+00 2.360060e-04 7.302385e-02 1.348074e-01 1.946341e-01 2.423841e-01 2.252973e-01 2.171631e-01 2.576844e-01 3.027343e-01 3.245761e-01 2.780750e-01 3.987390e-01 3.757160e-01 9.685699e-05
<GCONST> 8.276372e+01
<MIXTURE> 2 1.298669e-01
<MEAN> 39
 -1.393408e+00 1.268397e+01 -2.885396e+00 -1.663489e+00 -6.448995e+00 -5.693295e+00 -6.382061e+00 -1.047203e+00 -4.742800e+00 -2.345809e+00 -2.018335e+00 5.384920e-01 8.831117e-01 9.663922e-02 1.939603e-01 1.633230e-01 3.510355e-01 1.788774e-01 1.547560e-01 1.103447e-01 1.102030e-01 1.668725e-01 4.939327e-03 6.811669e-02 1.134427e-01 1.007935e-02 9.917344e-02 -7.442533e-03 8.329347e-02 -5.002150e-03 1.429247e-01 7.301664e-02 1.761033e-01 1.783916e-01 2.450400e-01 1.848017e-01 1.417595e-01 8.911649e-03 -3.874971e-03
<VARIANCE> 39
 9.947774e+00 3.818246e+01 1.490818e+01 1.374322e+01 1.812245e+01 2.415907e+01 2.994388e+01 3.134700e+01 2.465376e+01 2.621601e+01 3.944630e+01 3.711952e+01 5.240340e-03 2.011263e-01 3.440514e-01 4.292754e-01 5.126712e-01 6.275672e-01 6.857396e-01 8.518789e-01 8.190376e-01 8.375237e-01 7.050911e-01 9.048889e-01 7.569426e-01 5.772823e-05 4.074657e-02 6.681646e-02 8.728752e-02 8.999062e-02 1.196738e-01 1.265967e-01 1.531315e-01 1.964770e-01 1.594048e-01 1.518739e-01 1.696529e-01 1.643514e-01 1.214747e-05
<GCONST> 5.125675e+01
<MIXTURE> 3 7.459555e-02
<MEAN> 39
 -1.204246e+00 4.218721e+00 -1.135396e+00 -6.480654e-02 -1.441077e+00 -1.485938e+00 -1.908048e+00 -9.982769e-02 -1.503855e+00 -1.526255e-01 -3.027197e-01 1.843527e+00 9.628174e-01 1.135025e-01 5.845641e-02 1.088769e-01 1.048449e-01 1.555137e-01 2.109612e-02 1.141187e-01 3.191794e-02 1.203048e-01 6.321581e-02 1.099797e-01 -2.522169e-02 4.317291e-04 -1.880248e-02 -1.916016e-02 -3.532862e-02 -5.117347e-02 -6.506638e-02 -4.344373e-02 6.493346e-03 -1.059446e-02 -5.079791e-03 -2.761976e-02 -2.981659e-02 -2.375980e-02 -1.208818e-03
<VARIANCE> 39
 4.425540e+00 1.825909e+01 5.195332e+00 8.368471e+00 6.757845e+00 1.048233e+01 1.312356e+01 1.100014e+01 1.055302e+01 1.217791e+01 2.449214e+01 2.021339e+01 1.386305e-03 1.126114e-01 1.524452e-01 2.635638e-01 3.083996e-01 3.348224e-01 3.886449e-01 3.787035e-01 3.699999e-01 3.574587e-01 3.335810e-01 2.971233e-01 3.730975e-01 3.754082e-05 1.468552e-02 2.045927e-02 3.254725e-02 4.077539e-02 5.350078e-02 4.761936e-02 5.641432e-02 4.473995e-02 5.147769e-02 5.494131e-02 4.563903e-02 5.324076e-02 3.730629e-06
<GCONST> 1.738214e+01
<MIXTURE> 4 6.920438e-02
<MEAN> 39
 -4.711446e-01 1.408815e+01 -3.076062e+00 -1.578861e+00 -4.759660e+00 -7.334083e+00 -5.702101e+00 2.788592e-01 -5.016172e+00 -8.817472e-01 -3.402822e+00 1.266034e+00 8.421596e-01 3.657175e-03 5.144346e-02 -9.004943e-02 -6.188630e-02 4.934462e-02 -9.508722e-03 1.004177e-01 -1.306181e-01 8.420100e-02 -1.303160e-01 -3.502697e-02 -5.441997e-03 9.427135e-04 -7.740859e-03 -2.206681e-02 -8.855626e-03 -4.543492e-02 -1.132113e-02 -2.228238e-02 -4.582360e-03 -1.211651e-02 2.774260e-02 -5.641673e-04 1.840668e-02 -5.309551e-02 -1.089625e-03
<VARIANCE> 39
 4.569315e+00 1.918554e+01 1.383065e+01 1.339288e+01 1.527959e+01 1.997622e+01 2.679329e+01 2.384170e+01 2.566855e+01 2.729290e+01 2.971631e+01 2.329643e+01 7.903942e-03 4.372454e-02 1.053624e-01 1.244213e-01 1.950681e-01 2.362621e-01 2.736683e-01 2.311372e-01 3.326193e-01 2.994576e-01 2.404102e-01 2.323442e-01 3.345038e-01 3.754082e-05 8.386185e-03 1.441192e-02 2.267547e-02 3.298352e-02 4.063323e-02 5.013604e-02 4.153582e-02 5.761337e-02 4.854773e-02 4.013181e-02 4.331834e-02 5.853042e-02 3.730629e-06
<GCONST> 1.885815e+01
<MIXTURE> 5 7.502910e-02
<MEAN> 39
 -1.209169e+00 4.168991e+00 -1.130430e+00 -7.303016e-02 -1.425123e+00 -1.472809e+00 -1.888878e+00 -1.173025e-01 -1.487806e+00 -1.609727e-01 -2.951282e-01 1.834270e+00 9.631141e-01 1.125026e-01 5.686471e-02 1.076754e-01 1.028062e-01 1.541636e-01 1.890653e-02 1.134697e-01 2.991274e-02 1.177138e-01 6.136364e-02 1.093363e-01 -2.635210e-02 4.122173e-04 -1.858404e-02 -1.885609e-02 -3.485013e-02 -5.067472e-02 -6.477413e-02 -4.315641e-02 6.421272e-03 -9.914741e-03 -4.924349e-03 -2.728077e-02 -2.953769e-02 -2.358639e-02 -1.204187e-03
<VARIANCE> 39
 4.379281e+00 1.799526e+01 5.192387e+00 8.294762e+00 6.726533e+00 1.041009e+01 1.305304e+01 1.083309e+01 1.046403e+01 1.209623e+01 2.429369e+01 1.995302e+01 1.367575e-03 1.125508e-01 1.524651e-01 2.631113e-01 3.085791e-01 3.345535e-01 3.885576e-01 3.791378e-01 3.695656e-01 3.581015e-01 3.331489e-01 2.965214e-01 3.724860e-01 3.754082e-05 1.465882e-02 2.035983e-02 3.249408e-02 4.056478e-02 5.336004e-02 4.749128e-02 5.627402e-02 4.456753e-02 5.135449e-02 5.456382e-02 4.536533e-02 5.312691e-02 3.730629e-06
<GCONST> 1.721711e+01
<MIXTURE> 6 6.906441e-02
<MEAN> 39
 -4.741552e-01 1.407939e+01 -3.077580e+00 -1.573560e+00 -4.760740e+00 -7.333744e+00 -5.719954e+00 2.748606e-01 -5.033774e+00 -8.781817e-01 -3.402223e+00 1.279497e+00 8.426940e-01 3.147136e-03 5.033072e-02 -9.111696e-02 -6.299819e-02 4.777127e-02 -1.130072e-02 9.877654e-02 -1.319594e-01 8.307143e-02 -1.309255e-01 -3.645884e-02 -6.224497e-03 9.474952e-04 -7.647549e-03 -2.195901e-02 -8.608543e-03 -4.536625e-02 -1.135351e-02 -2.213850e-02 -4.245123e-03 -1.157622e-02 2.804612e-02 -4.269582e-04 1.850140e-02 -5.304120e-02 -1.092622e-03
<VARIANCE> 39
 4.593707e+00 1.929264e+01 1.381724e+01 1.337484e+01 1.526878e+01 1.991351e+01 2.674445e+01 2.383198e+01 2.565587e+01 2.723023e+01 2.977873e+01 2.334834e+01 7.841003e-03 4.377766e-02 1.057548e-01 1.246253e-01 1.948548e-01 2.369579e-01 2.734852e-01 2.317644e-01 3.319265e-01 2.994857e-01 2.403020e-01 2.319966e-01 3.343979e-01 3.754082e-05 8.383135e-03 1.442286e-02 2.267724e-02 3.293563e-02 4.073766e-02 4.998546e-02 4.159155e-02 5.761910e-02 4.859471e-02 4.013499e-02 4.325405e-02 5.857033e-02 3.730629e-06
<GCONST> 1.886064e+01
<MIXTURE> 7 6.906441e-02
<MEAN> 39
 -4.741552e-01 1.407939e+01 -3.077580e+00 -1.573560e+00 -4.760740e+00 -7.333744e+00 -5.719954e+00 2.748606e-01 -5.033774e+00 -8.781817e-01 -3.402223e+00 1.279497e+00 8.426940e-01 3.147136e-03 5.033072e-02 -9.111696e-02 -6.299819e-02 4.777127e-02 -1.130072e-02 9.877654e-02 -1.319594e-01 8.307143e-02 -1.309255e-01 -3.645884e-02 -6.224497e-03 9.474952e-04 -7.647549e-03 -2.195901e-02 -8.608543e-03 -4.536625e-02 -1.135351e-02 -2.213850e-02 -4.245123e-03 -1.157622e-02 2.804612e-02 -4.269582e-04 1.850140e-02 -5.304120e-02 -1.092622e-03
<VARIANCE> 39
 4.593707e+00 1.929264e+01 1.381724e+01 1.337484e+01 1.526878e+01 1.991351e+01 2.674445e+01 2.383198e+01 2.565587e+01 2.723023e+01 2.977873e+01 2.334834e+01 7.841003e-03 4.377766e-02 1.057548e-01 1.246253e-01 1.948548e-01 2.369579e-01 2.734852e-01 2.317644e-01 3.319265e-01 2.994857e-01 2.403020e-01 2.319966e-01 3.343979e-01 3.754082e-05 8.383135e-03 1.442286e-02 2.267724e-02 3.293563e-02 4.073766e-02 4.998546e-02 4.159155e-02 5.761910e-02 4.859471e-02 4.013499e-02 4.325405e-02 5.857033e-02 3.730629e-06
<GCONST> 1.886064e+01
<MIXTURE> 8 7.773118e-02
<MEAN> 39
 -1.374623e+00 1.051914e+01 -1.660568e+00 1.274221e-01 -3.534251e+00 -4.019446e+00 -1.932496e+00 6.810197e-01 -1.903230e+00 -6.166416e-01 -2.191872e+00 4.284660e+00 9.111375e-01 -7.102621e-02 -2.932911e-01 -3.394764e-01 -4.671229e-02 -3.831178e-01 -4.819731e-01 -5.731922e-01 -3.339261e-01 -3.385165e-01 -2.006920e-01 -1.478286e-01 -2.577047e-01 6.686438e-03 -6.726385e-02 -1.958866e-01 -2.186155e-01 -2.896830e-01 -2.317684e-01 -1.618402e-01 -1.418145e-01 -2.506087e-01 -2.074893e-01 -1.687875e-01 -1.611792e-01 -2.557216e-01 -2.735787e-03
<VARIANCE> 39
 8.852938e+00 3.923214e+01 6.614144e+00 1.179655e+01 1.478571e+01 2.679560e+01 1.848493e+01 2.176021e+01 1.852763e+01 2.179284e+01 3.430764e+01 3.803751e+01 4.468249e-03 1.146917e-01 1.583615e-01 2.532481e-01 3.483141e-01 4.253954e-01 5.283805e-01 4.207111e-01 5.817508e-01 3.131752e-01 5.734177e-01 8.746085e-01 9.581390e-01 5.149339e-05 2.082928e-02 4.236312e-02 5.721400e-02 6.763905e-02 8.172451e-02 9.891494e-02 1.107973e-01 9.239846e-02 9.373356e-02 1.028116e-01 1.354356e-01 1.090042e-01 6.883205e-06
<GCONST> 3.779169e+01
<MIXTURE> 9 1.301630e-01
<MEAN> 39
 -1.375230e+00 1.280636e+01 -2.770585e+00 -1.658666e+00 -6.440158e+00 -5.611674e+00 -6.493402e+00 -9.081498e-01 -4.711028e+00 -2.353559e+00 -1.863626e+00 4.265586e-01 8.823207e-01 9.123604e-02 1.960484e-01 1.577523e-01 3.430757e-01 1.725074e-01 1.478717e-01 1.118243e-01 1.094056e-01 1.665480e-01 9.981471e-05 5.808355e-02 1.057370e-01 1.003806e-02 9.731451e-02 -1.435101e-02 7.860100e-02 -7.746721e-03 1.403969e-01 6.600076e-02 1.693536e-01 1.685952e-01 2.401333e-01 1.810143e-01 1.362209e-01 6.915957e-03 -3.844157e-03
<VARIANCE> 39
 9.875103e+00 3.810973e+01 1.497307e+01 1.374218e+01 1.827035e+01 2.445388e+01 3.049639e+01 3.135638e+01 2.496185e+01 2.655904e+01 3.949979e+01 3.682421e+01 5.189691e-03 2.002615e-01 3.456424e-01 4.342363e-01 5.142340e-01 6.282716e-01 6.878092e-01 8.542835e-01 8.222778e-01 8.480055e-01 7.064154e-01 9.074581e-01 7.558748e-01 5.743701e-05 4.060432e-02 6.676459e-02 8.719207e-02 8.949463e-02 1.198183e-01 1.266602e-01 1.530211e-01 1.968322e-01 1.605814e-01 1.509551e-01 1.676717e-01 1.630861e-01 1.210729e-05
<GCONST> 5.130652e+01
<MIXTURE> 10 2.269802e-01
<MEAN> 39
 -3.125583e+00 1.447305e+01 3.790934e-02 -2.334956e+00 -3.717943e+00 -4.722752e+00 -6.832842e+00 -3.529249e-01 -2.864760e-01 -3.535506e+00 5.126157e+00 -1.178830e+00 8.991451e-01 4.464427e-03 1.719489e-02 -3.372667e-02 -7.086454e-02 4.235558e-02 -3.432678e-02 1.396823e-02 -1.116059e-02 1.563798e-02 3.818359e-02 -1.556339e-02 2.033117e-03 1.126142e-04 2.210822e-02 -2.692532e-02 1.526758e-02 -2.132510e-02 9.329452e-03 -3.191143e-03 6.770388e-03 1.381862e-02 3.164571e-03 2.188451e-02 -1.023205e-02 2.559105e-02 -1.014688e-03
<VARIANCE> 39
 7.679339e+00 4.551261e+01 8.335754e+00 6.128741e+00 7.732627e+00 1.251137e+01 2.326661e+01 1.178519e+01 1.517237e+01 2.644906e+01 1.767276e+01 2.738374e+01 5.743549e-03 5.154778e-02 7.912587e-02 8.984999e-02 1.119223e-01 1.258766e-01 1.309552e-01 1.464321e-01 1.458301e-01 1.741876e-01 1.783939e-01 1.161957e-01 1.492103e-01 3.754082e-05 7.205616e-03 1.630530e-02 1.511224e-02 1.675440e-02 2.353826e-02 1.952919e-02 2.429217e-02 2.606829e-02 3.074078e-02 3.093908e-02 1.883608e-02 2.592906e-02 3.730629e-06
<GCONST> 3.439168e+00
<STATE> 5
<NUMMIXES> 10
<MIXTURE> 1 6.833376e-02
<MEAN> 39
 -1.795351e+00 1.306420e+01 -2.601709e+00 -1.491357e+00 -5.869656e+00 -4.295060e+00 -2.612839e+00 1.907704e-01 2.022359e+00 1.850435e+00 4.057543e+00 1.974835e+00 8.896738e-01 1.395656e-01 2.940806e-01 5.038334e-01 5.350997e-01 2.676262e-01 4.592189e-01 4.550459e-01 2.528424e-01 2.861540e-01 4.372163e-01 4.214940e-01 -4.029734e-02 1.022757e-02 1.957891e-03 -2.187063e-01 -8.605231e-02 -2.328114e-01 1.040927e-02 -1.490531e-01 -1.468426e-01 -8.042734e-02 -4.385571e-02 -1.208808e-01 -1.698644e-01 -9.775711e-02 -4.124485e-03
<VARIANCE> 39
 1.439108e+01 3.687387e+01 2.651726e+01 2.576478e+01 2.536358e+01 2.603068e+01 4.033486e+01 3.702279e+01 6.874790e+01 8.142801e+01 5.514371e+01 9.315714e+01 8.294004e-03 6.217134e-01 1.000172e+00 8.572839e-01 9.563225e-01 1.600918e+00 1.635404e+00 1.854863e+00 1.542805e+00 1.399764e+00 1.905684e+00 2.145623e+00 2.695327e+00 1.138081e-04 1.017190e-01 1.338712e-01 2.433163e-01 2.432870e-01 3.026006e-01 2.427278e-01 2.613686e-01 2.531548e-01 3.322358e-01 3.509878e-01 3.191573e-01 3.308742e-01 4.233346e-05
<GCONST> 7.873987e+01
<MIXTURE> 2 6.239491e-02
<MEAN> 39
 -6.372597e-01 1.279889e+01 -6.373237e+00 -2.142731e+00 -8.823164e+00 -8.318546e+00 -4.632714e+00 -4.277063e+00 -3.930976e+00 -3.916150e+00 -6.007297e+00 1.129614e+00 8.741704e-01 3.701970e-01 4.930701e-01 5.149463e-01 6.612455e-01 8.375089e-01 8.868005e-01 8.297831e-01 7.285086e-01 7.995233e-01 6.604511e-01 6.457946e-01 3.866228e-01 3.983064e-06 7.315182e-02 9.891375e-02 1.763954e-01 1.588835e-01 2.605802e-01 1.730891e-01 2.724725e-01 2.068367e-01 1.831282e-01 2.359200e-01 1.625478e-01 7.397662e-02 -1.145322e-03
<VARIANCE> 39
 1.521424e+01 2.075153e+01 1.533065e+01 1.470534e+01 1.505987e+01 2.101796e+01 1.792841e+01 2.767554e+01 2.030522e+01 2.999355e+01 2.403544e+01 3.399873e+01 7.806422e-03 1.190959e-01 2.248832e-01 2.293984e-01 4.482293e-01 3.785925e-01 5.024953e-01 5.524778e-01 4.932926e-01 5.261119e-01 5.028578e-01 4.431272e-01 5.407432e-01 3.754082e-05 1.967759e-02 3.660016e-02 5.135525e-02 8.885289e-02 8.699334e-02 1.152617e-01 1.037475e-01 1.079012e-01 1.090017e-01 1.052153e-01 1.062362e-01 1.157205e-01 3.730629e-06
<GCONST> 3.819040e+01
<MIXTURE> 3 1.245429e-01
<MEAN> 39
 8.273242e-01 1.558954e+01 -4.690235e+00 2.535339e-01 -5.293451e+00 -5.741112e+00 -1.745310e+00 -1.361203e+00 -1.015345e+00 -6.591171e-02 -2.699597e+00 4.222917e+00 8.623947e-01 1.290039e-01 1.678621e-01 7.559288e-02 2.260781e-01 2.124870e-01 9.650973e-02 2.843309e-01 1.126173e-01 2.223232e-01 2.279898e-01 1.495507e-01 9.825055e-02 2.629602e-04 -1.001358e-01 -1.732982e-01 -1.356684e-01 -2.115198e-01 -1.911844e-01 -2.432002e-01 -1.676965e-01 -1.493192e-01 -1.531465e-01 -1.442077e-01 -1.387793e-01 -1.842645e-01 -8.739498e-04
<VARIANCE> 39
 1.627849e+01 2.213349e+01 1.856349e+01 1.381859e+01 1.407465e+01 1.669526e+01 1.795677e+01 2.623917e+01 2.704535e+01 3.369208e+01 5.619272e+01 5.834013e+01 8.004862e-03 1.097649e-01 2.591451e-01 3.363120e-01 4.620420e-01 5.506915e-01 7.160068e-01 7.304988e-01 7.336323e-01 6.621066e-01 6.979114e-01 6.386241e-01 8.292095e-01 3.754082e-05 1.821827e-02 3.612968e-02 6.393757e-02 7.018603e-02 8.225007e-02 1.086439e-01 1.402052e-01 1.178284e-01 1.243484e-01 1.180841e-01 1.297564e-01 1.211688e-01 3.730629e-06
<GCONST> 4.380853e+01
<MIXTURE> 4 6.162037e-02
<MEAN> 39
 -7.049524e-01 1.289194e+01 -6.183224e+00 -1.978967e+00 -8.541921e+00 -9.657193e+00 -5.284623e+00 -4.012232e+00 -4.210296e+00 -3.560209e+00 -6.468863e+00 8.058525e-01 8.725589e-01 -3.203052e-02 -8.618929e-02 -2.376816e-01 -1.530178e-01 -1.527601e-01 -1.982865e-01 -1.310011e-01 -2.538060e-01 -2.464548e-02 -1.640254e-01 -1.243372e-01 -1.989420e-01 4.344870e-05 6.823402e-02 1.047363e-01 1.735573e-01 1.175402e-01 2.411707e-01 2.304359e-01 2.520137e-01 2.157729e-01 2.307995e-01 1.636829e-01 1.746720e-01 1.158195e-01 -1.333826e-03
<VARIANCE> 39
 1.635975e+01 2.110612e+01 1.623890e+01 1.528956e+01 1.728509e+01 1.766281e+01 2.383879e+01 2.597015e+01 2.275204e+01 3.279783e+01 2.957396e+01 4.680110e+01 6.071913e-03 8.438891e-02 1.530271e-01 2.322258e-01 3.448094e-01 3.041159e-01 4.349230e-01 5.039521e-01 4.027735e-01 4.540172e-01 4.402435e-01 4.917172e-01 4.987640e-01 3.754082e-05 1.836373e-02 4.255496e-02 5.685419e-02 7.406195e-02 7.417669e-02 1.091411e-01 1.302459e-01 9.736463e-02 1.175183e-01 1.035639e-01 8.729559e-02 1.174584e-01 3.730629e-06
<GCONST> 3.693575e+01
<MIXTURE> 5 1.238708e-01
<MEAN> 39
 7.814730e-01 1.558831e+01 -4.750166e+00 2.152929e-01 -5.287226e+00 -5.747293e+00 -1.712798e+00 -1.367521e+00 -9.182684e-01 4.041598e-02 -2.486581e+00 4.403181e+00 8.629656e-01 1.277775e-01 1.640830e-01 7.330532e-02 2.241366e-01 2.107058e-01 9.554381e-02 2.771294e-01 1.078954e-01 2.180752e-01 2.225992e-01 1.461659e-01 9.369475e-02 2.604520e-04 -9.827192e-02 -1.708104e-01 -1.319985e-01 -2.086366e-01 -1.878170e-01 -2.383580e-01 -1.640075e-01 -1.440673e-01 -1.495454e-01 -1.410502e-01 -1.364400e-01 -1.806934e-01 -8.803632e-04
<VARIANCE> 39
 1.651627e+01 2.235162e+01 1.925377e+01 1.387608e+01 1.406375e+01 1.655042e+01 1.794462e+01 2.607617e+01 2.771671e+01 3.506019e+01 5.906622e+01 6.018929e+01 7.908193e-03 1.108461e-01 2.585249e-01 3.360081e-01 4.653565e-01 5.492387e-01 7.152551e-01 7.269426e-01 7.306904e-01 6.607105e-01 6.993293e-01 6.384032e-01 8.310564e-01 3.754082e-05 1.831867e-02 3.604816e-02 6.405600e-02 7.011582e-02 8.194559e-02 1.079885e-01 1.391188e-01 1.169526e-01 1.235379e-01 1.188092e-01 1.294895e-01 1.207165e-01 3.730629e-06
<GCONST> 4.396606e+01
<MIXTURE> 6 6.129443e-02
<MEAN> 39
 -6.903489e-01 1.290506e+01 -6.162674e+00 -1.958681e+00 -8.510346e+00 -9.634241e+00 -5.249259e+00 -4.005202e+00 -4.174756e+00 -3.539047e+00 -6.441318e+00 8.213661e-01 8.727490e-01 -3.140816e-02 -8.458395e-02 -2.369023e-01 -1.505878e-01 -1.511297e-01 -1.965325e-01 -1.286975e-01 -2.533013e-01 -2.154664e-02 -1.623259e-01 -1.249425e-01 -1.977108e-01 1.954008e-05 6.698781e-02 1.022307e-01 1.711161e-01 1.147868e-01 2.379575e-01 2.266787e-01 2.475998e-01 2.128407e-01 2.275814e-01 1.614571e-01 1.724726e-01 1.142915e-01 -1.333169e-03
<VARIANCE> 39
 1.640747e+01 2.120301e+01 1.631202e+01 1.535438e+01 1.728321e+01 1.760777e+01 2.387081e+01 2.601329e+01 2.271213e+01 3.288884e+01 2.977379e+01 4.712829e+01 6.063286e-03 8.453690e-02 1.538624e-01 2.338462e-01 3.467422e-01 3.052325e-01 4.365460e-01 5.062476e-01 4.024299e-01 4.564995e-01 4.409925e-01 4.942907e-01 4.996686e-01 3.754082e-05 1.842887e-02 4.248697e-02 5.696597e-02 7.408288e-02 7.391822e-02 1.088829e-01 1.310887e-01 9.724092e-02 1.172620e-01 1.037332e-01 8.767682e-02 1.183069e-01 3.730629e-06
<GCONST> 3.702454e+01
<MIXTURE> 7 6.121811e-02
<MEAN> 39
 -6.865395e-01 1.290881e+01 -6.159783e+00 -1.955566e+00 -8.506333e+00 -9.629455e+00 -5.241810e+00 -4.003829e+00 -4.166951e+00 -3.537736e+00 -6.434832e+00 8.234639e-01 8.727648e-01 -3.127335e-02 -8.419766e-02 -2.371437e-01 -1.502796e-01 -1.509783e-01 -1.963243e-01 -1.284191e-01 -2.534296e-01 -2.090970e-02 -1.623932e-01 -1.252800e-01 -1.973812e-01 1.753975e-05 6.681092e-02 1.018225e-01 1.707831e-01 1.144347e-01 2.374805e-01 2.262131e-01 2.468075e-01 2.123861e-01 2.271096e-01 1.612436e-01 1.721113e-01 1.140723e-01 -1.333098e-03
<VARIANCE> 39
 1.642761e+01 2.122581e+01 1.635420e+01 1.537490e+01 1.728635e+01 1.759607e+01 2.388771e+01 2.602464e+01 2.271333e+01 3.294241e+01 2.984131e+01 4.724827e+01 6.063370e-03 8.459668e-02 1.542234e-01 2.344870e-01 3.474689e-01 3.056055e-01 4.373783e-01 5.070665e-01 4.024019e-01 4.570633e-01 4.414234e-01 4.949099e-01 5.003138e-01 3.754082e-05 1.845065e-02 4.253617e-02 5.706242e-02 7.420532e-02 7.395077e-02 1.088969e-01 1.314715e-01 9.727531e-02 1.173123e-01 1.039052e-01 8.781046e-02 1.186670e-01 3.730629e-06
<GCONST> 3.707139e+01
<MIXTURE> 8 1.066659e-01
<MEAN> 39
 -6.929955e-01 1.228655e+01 -4.534381e+00 -1.015493e+00 -6.322443e+00 -7.651675e+00 -3.262549e+00 -2.566505e+00 -3.399956e+00 -2.153069e+00 -5.538154e+00 2.088831e+00 8.808778e-01 -2.904105e-01 -5.999756e-01 -7.813155e-01 -7.187893e-01 -8.595762e-01 -9.331031e-01 -9.013156e-01 -8.757364e-01 -7.112237e-01 -6.979417e-01 -5.844160e-01 -7.126909e-01 1.723406e-03 -3.449260e-03 1.795066e-02 1.148898e-02 -3.842203e-02 1.279307e-02 4.161724e-02 4.559261e-02 7.164649e-02 3.455069e-02 -1.400250e-02 4.316870e-02 -1.586127e-02 -1.422661e-03
<VARIANCE> 39
 1.357295e+01 3.702383e+01 1.154233e+01 1.258368e+01 1.736023e+01 2.622231e+01 1.875058e+01 2.510620e+01 1.776074e+01 2.558101e+01 2.348452e+01 3.498835e+01 6.190622e-03 7.897390e-02 1.684810e-01 2.040881e-01 3.416057e-01 3.330641e-01 3.849045e-01 4.710130e-01 4.481689e-01 4.475065e-01 4.294637e-01 5.319027e-01 5.244250e-01 4.185974e-05 1.239466e-02 3.064324e-02 4.688436e-02 4.580080e-02 7.538272e-02 9.128866e-02 1.231216e-01 1.046528e-01 7.920729e-02 9.268750e-02 6.891424e-02 8.757685e-02 3.730629e-06
<GCONST> 3.342296e+01
<MIXTURE> 9 6.260098e-02
<MEAN> 39
 -6.403864e-01 1.280760e+01 -6.307011e+00 -2.052812e+00 -8.713202e+00 -8.235534e+00 -4.536205e+00 -4.212121e+00 -3.857862e+00 -3.795577e+00 -5.947075e+00 1.179174e+00 8.752063e-01 3.734747e-01 4.961055e-01 5.244448e-01 6.709716e-01 8.439975e-01 8.949622e-01 8.406691e-01 7.395399e-01 8.042943e-01 6.627994e-01 6.588467e-01 4.021826e-01 4.659159e-05 6.887989e-02 9.228975e-02 1.687458e-01 1.463448e-01 2.489739e-01 1.594903e-01 2.603463e-01 1.975995e-01 1.704589e-01 2.266641e-01 1.537304e-01 6.635755e-02 -1.162523e-03
<VARIANCE> 39
 1.512435e+01 2.073195e+01 1.489113e+01 1.451274e+01 1.484789e+01 2.071223e+01 1.764996e+01 2.739850e+01 2.007696e+01 2.925528e+01 2.374724e+01 3.365756e+01 7.770374e-03 1.209039e-01 2.223163e-01 2.314489e-01 4.464946e-01 3.801173e-01 5.023834e-01 5.515435e-01 4.981694e-01 5.315595e-01 5.043805e-01 4.481970e-01 5.406204e-01 3.754082e-05 1.923721e-02 3.564916e-02 5.045167e-02 8.626691e-02 8.583303e-02 1.126595e-01 1.033375e-01 1.063273e-01 1.065083e-01 1.030359e-01 1.064113e-01 1.139959e-01 3.730629e-06
<GCONST> 3.786013e+01
<MIXTURE> 10 2.674550e-01
<MEAN> 39
 -1.415476e+00 1.662955e+01 8.310823e-01 -1.369010e+00 -6.484867e+00 -2.935942e+00 -1.218278e+01 3.513980e-01 -4.794631e-01 -5.742724e+00 5.576492e+00 -4.827456e+00 8.643099e-01 5.808201e-03 2.823991e-02 5.506651e-02 -3.400070e-02 1.544594e-01 -6.242300e-02 5.760507e-02 8.940170e-02 5.136578e-02 6.119922e-02 7.088277e-03 -1.047058e-01 2.867693e-04 1.586998e-03 -6.327530e-02 1.827277e-02 -7.074635e-02 2.699285e-02 -8.396070e-02 5.816587e-02 -3.800287e-02 2.069631e-02 5.592210e-02 -1.614472e-02 5.282901e-02 -1.120654e-03
<VARIANCE> 39
 9.515423e+00 2.347075e+01 1.056776e+01 1.479873e+01 2.521121e+01 2.135855e+01 1.951182e+01 2.357733e+01 2.426346e+01 2.563690e+01 1.434775e+01 1.448246e+01 4.209619e-03 8.699770e-02 1.511355e-01 2.672925e-01 3.158056e-01 3.490769e-01 5.193075e-01 5.638691e-01 5.843359e-01 5.901465e-01 5.365164e-01 4.763255e-01 4.391216e-01 3.754082e-05 1.746446e-02 3.028719e-02 4.325399e-02 6.054741e-02 6.661820e-02 8.956325e-02 9.420756e-02 9.914001e-02 1.377852e-01 8.864099e-02 8.384158e-02 7.042326e-02 3.730629e-06
<GCONST> 3.301037e+01
<STATE> 6
<NUMMIXES> 10
<MIXTURE> 1 1.142361e-01
<MEAN> 39
 -1.438805e+00 4.951786e-01 -2.073619e+00 -1.772581e+00 -1.836677e+00 -1.995022e+00 -2.325624e+00 -2.463998e+00 -1.879076e+00 -2.488131e+00 -2.199047e+00 -1.628015e+00 9.657843e-01 2.927448e-01 2.795889e-01 3.291926e-01 3.734323e-01 4.027097e-01 3.611898e-01 3.506061e-01 4.836822e-01 4.368113e-01 3.102877e-01 1.531121e-01 2.810024e-01 -2.840467e-03 5.902798e-02 1.103238e-01 1.126481e-01 8.440548e-02 5.218487e-02 9.226412e-02 1.484051e-01 1.421090e-01 1.173964e-01 1.326688e-01 7.930055e-02 9.608046e-02 -6.642482e-04
<VARIANCE> 39
 2.770196e+00 2.876366e+00 6.932922e+00 6.953597e+00 8.699901e+00 5.925611e+00 9.774690e+00 8.784692e+00 7.722056e+00 7.733345e+00 1.503390e+01 1.091216e+01 8.291632e-04 8.643392e-02 1.903042e-01 3.097602e-01 3.906176e-01 6.558035e-01 4.237149e-01 7.130674e-01 6.197178e-01 4.679054e-01 4.495356e-01 5.197967e-01 4.428375e-01 3.754082e-05 1.415437e-02 3.452697e-02 5.568716e-02 5.412028e-02 9.073620e-02 8.243109e-02 1.049478e-01 1.028611e-01 7.998998e-02 7.230792e-02 8.311272e-02 7.807332e-02 3.730629e-06
<GCONST> 2.104175e+01
<MIXTURE> 2 7.437702e-02
<MEAN> 39
 -1.838810e+00 4.182302e+00 -4.639131e+00 -2.736726e+00 -6.087426e+00 -5.222676e+00 -4.162206e+00 -4.240360e+00 -4.042184e+00 -4.207009e+00 -4.404831e+00 -5.714136e-01 9.347156e-01 -1.027316e-02 -1.327270e-01 -2.061536e-01 -1.944668e-01 -2.266090e-01 -2.906198e-01 -1.286851e-01 -1.343063e-01 -1.961664e-01 -2.244942e-01 -1.670245e-01 -2.646140e-01 -2.711098e-03 1.487569e-01 2.633083e-01 3.597823e-01 2.947598e-01 4.301430e-01 3.010321e-01 3.777205e-01 4.567567e-01 3.452033e-01 3.365953e-01 2.621664e-01 2.323924e-01 -1.167404e-03
<VARIANCE> 39
 1.051733e+01 3.757537e+01 8.615413e+00 1.124252e+01 1.639349e+01 2.091798e+01 1.144005e+01 1.352508e+01 1.490488e+01 1.544178e+01 2.269382e+01 2.308249e+01 3.591988e-03 1.593428e-01 2.991411e-01 4.952799e-01 5.880960e-01 8.601654e-01 7.731146e-01 7.561337e-01 9.205782e-01 7.714180e-01 8.278367e-01 1.132627e+00 6.062486e-01 3.754082e-05 2.245007e-02 4.762749e-02 7.258194e-02 8.590779e-02 1.209998e-01 1.049894e-01 1.082676e-01 1.262351e-01 1.291529e-01 1.144778e-01 1.836039e-01 1.080852e-01 3.730629e-06
<GCONST> 4.190830e+01
<MIXTURE> 3 1.117780e-01
<MEAN> 39
 -1.114531e-01 7.056550e+00 -1.283917e+00 8.576655e-01 -2.700229e+00 -2.230838e+00 -3.320517e-01 -1.260443e-02 -1.075207e+00 -8.893430e-01 -2.022975e+00 1.146082e+00 9.282181e-01 3.419739e-01 2.234645e-01 3.995416e-01 4.647158e-01 4.796681e-01 4.138746e-01 4.977459e-01 2.517962e-01 5.342286e-01 5.589119e-01 3.470800e-01 1.632790e-01 -4.314787e-03 -4.367011e-02 -1.510861e-01 -1.693106e-01 -2.058447e-01 -1.279016e-01 -1.788581e-01 -2.383916e-01 -2.499598e-01 -1.393028e-01 -8.268209e-02 -6.737935e-02 -1.347476e-01 -1.096189e-03
<VARIANCE> 39
 1.200275e+01 3.152772e+01 8.455741e+00 1.086961e+01 1.703774e+01 1.621171e+01 1.199679e+01 1.613599e+01 1.233210e+01 1.741488e+01 1.785751e+01 1.841546e+01 2.630243e-03 1.806931e-01 3.684405e-01 4.670389e-01 5.004946e-01 7.378717e-01 7.610413e-01 9.071724e-01 9.450465e-01 7.605839e-01 7.140504e-01 7.574281e-01 5.729961e-01 3.754082e-05 2.903055e-02 5.438779e-02 8.568829e-02 1.014499e-01 1.574329e-01 1.277845e-01 1.249520e-01 1.503846e-01 1.409576e-01 1.372638e-01 1.385912e-01 1.016303e-01 3.730629e-06
<GCONST> 4.193266e+01
<MIXTURE> 4 6.613875e-02
<MEAN> 39
 6.396936e-01 1.267829e+01 -3.839267e+00 1.213427e-01 -5.515487e+00 -5.263505e+00 -3.237090e+00 -5.639655e-01 -7.435109e-01 1.158665e+00 5.555623e-01 3.239253e+00 8.955536e-01 -8.340747e-02 -7.721016e-02 -7.577351e-02 -2.145813e-01 1.448895e-01 -9.635954e-02 1.417624e-02 -5.877533e-02 2.300060e-01 3.367548e-02 1.705109e-01 -1.975013e-01 9.393007e-04 -1.191465e-01 -1.385859e-01 -1.001348e-01 -3.129895e-01 -5.041953e-02 -1.922605e-01 -8.665890e-02 -1.261601e-01 1.426622e-03 -1.813232e-01 -4.488121e-02 -1.310337e-01 -1.502264e-03
<VARIANCE> 39
 1.451361e+01 2.908475e+01 2.221523e+01 2.069358e+01 2.298694e+01 2.939362e+01 2.911543e+01 3.633665e+01 4.484858e+01 5.587188e+01 6.902477e+01 7.516870e+01 5.311436e-03 2.929497e-01 4.569933e-01 7.623729e-01 7.653782e-01 1.083734e+00 1.406288e+00 1.171832e+00 1.105936e+00 1.161046e+00 1.416240e+00 1.612822e+00 1.158271e+00 4.343481e-05 6.027418e-02 1.109379e-01 1.679831e-01 1.850300e-01 2.136570e-01 2.958513e-01 2.562565e-01 3.070883e-01 2.432961e-01 3.534609e-01 2.951427e-01 2.746782e-01 9.595956e-06
<GCONST> 6.738232e+01
<MIXTURE> 5 1.118210e-01
<MEAN> 39
 -1.092858e-01 7.026248e+00 -1.274464e+00 8.488550e-01 -2.680761e+00 -2.225474e+00 -3.270396e-01 -1.002026e-02 -1.075583e+00 -8.849348e-01 -2.011525e+00 1.135313e+00 9.283079e-01 3.419358e-01 2.216292e-01 3.981386e-01 4.645829e-01 4.769592e-01 4.110667e-01 4.949240e-01 2.492830e-01 5.326486e-01 5.587914e-01 3.450037e-01 1.631251e-01 -4.328776e-03 -4.306330e-02 -1.501137e-01 -1.686674e-01 -2.042828e-01 -1.273741e-01 -1.773466e-01 -2.381019e-01 -2.487419e-01 -1.381783e-01 -8.175027e-02 -6.673498e-02 -1.341404e-01 -1.095827e-03
<VARIANCE> 39
 1.196376e+01 3.144856e+01 8.431379e+00 1.086187e+01 1.701942e+01 1.618836e+01 1.200577e+01 1.610330e+01 1.232714e+01 1.739431e+01 1.785442e+01 1.836345e+01 2.623195e-03 1.809199e-01 3.691300e-01 4.685924e-01 5.016614e-01 7.391651e-01 7.650771e-01 9.124044e-01 9.473223e-01 7.630242e-01 7.143020e-01 7.600793e-01 5.728794e-01 3.754082e-05 2.906355e-02 5.434666e-02 8.565316e-02 1.015108e-01 1.575601e-01 1.281331e-01 1.249676e-01 1.504475e-01 1.411100e-01 1.373429e-01 1.387793e-01 1.015582e-01 3.730629e-06
<GCONST> 4.195000e+01
<MIXTURE> 6 6.585737e-02
<MEAN> 39
 7.840082e-01 1.258912e+01 -3.828613e+00 1.899030e-01 -5.419728e+00 -5.250587e+00 -3.639372e+00 -6.184887e-01 -1.107570e+00 9.373381e-01 1.190910e-01 2.808153e+00 8.941686e-01 -6.562304e-02 -7.263034e-02 -9.385360e-02 -2.121999e-01 1.475287e-01 -9.291825e-02 2.886903e-03 -6.062823e-02 2.551728e-01 2.267783e-02 1.319746e-01 -2.366974e-01 4.734908e-04 -1.143082e-01 -1.125694e-01 -8.078731e-02 -3.017701e-01 -4.180032e-02 -1.801788e-01 -5.437467e-02 -1.040666e-01 1.245372e-02 -1.788040e-01 -3.057309e-02 -1.139240e-01 -1.283642e-03
<VARIANCE> 39
 1.376626e+01 2.917379e+01 2.193263e+01 1.953601e+01 2.254678e+01 2.995190e+01 2.839840e+01 3.575695e+01 4.302757e+01 5.345449e+01 6.496347e+01 6.927470e+01 5.063068e-03 2.707544e-01 4.396397e-01 7.515636e-01 7.879794e-01 1.059566e+00 1.394475e+00 1.176354e+00 1.096651e+00 1.168576e+00 1.449949e+00 1.583169e+00 1.074525e+00 3.817782e-05 5.371901e-02 1.033637e-01 1.585042e-01 1.704421e-01 1.977204e-01 2.870010e-01 2.483190e-01 2.958165e-01 2.348364e-01 3.272553e-01 2.793595e-01 2.462539e-01 7.393981e-06
<GCONST> 6.557378e+01
<MIXTURE> 7 6.633774e-02
<MEAN> 39
 6.117241e-01 1.266898e+01 -3.818980e+00 8.237399e-02 -5.528030e+00 -5.258482e+00 -3.186619e+00 -5.649431e-01 -7.176512e-01 1.155601e+00 6.029893e-01 3.247540e+00 8.956217e-01 -8.809496e-02 -8.068439e-02 -7.420153e-02 -2.146600e-01 1.429721e-01 -9.675504e-02 1.259719e-02 -6.628849e-02 2.265955e-01 3.279968e-02 1.780382e-01 -1.936762e-01 1.050256e-03 -1.178999e-01 -1.416209e-01 -1.018387e-01 -3.104458e-01 -5.034163e-02 -1.917971e-01 -9.312426e-02 -1.284457e-01 1.323385e-03 -1.833634e-01 -4.653593e-02 -1.325733e-01 -1.557507e-03
<VARIANCE> 39
 1.453551e+01 2.930326e+01 2.227078e+01 2.121135e+01 2.320238e+01 2.943591e+01 2.918616e+01 3.645585e+01 4.476514e+01 5.618089e+01 6.926150e+01 7.581361e+01 5.466068e-03 3.001679e-01 4.629582e-01 7.721748e-01 7.670645e-01 1.093182e+00 1.420366e+00 1.179078e+00 1.126493e+00 1.167155e+00 1.418248e+00 1.625569e+00 1.176287e+00 4.472844e-05 6.198254e-02 1.122524e-01 1.713043e-01 1.908548e-01 2.184425e-01 2.975567e-01 2.592121e-01 3.106538e-01 2.454823e-01 3.624285e-01 2.989376e-01 2.813224e-01 1.039466e-05
<GCONST> 6.792599e+01
<MIXTURE> 8 1.336201e-01
<MEAN> 39
 -8.294891e-01 5.196457e+00 -1.355229e+00 3.587748e-01 -1.768522e+00 -1.612043e+00 -6.111408e-01 -9.256541e-01 -3.927027e-01 -3.161549e-01 -1.802221e+00 1.351861e+00 9.506619e-01 -1.600222e-01 -4.922969e-01 -6.472508e-01 -6.559995e-01 -5.974308e-01 -5.690575e-01 -5.313826e-01 -7.240722e-01 -4.711979e-01 -5.142533e-01 -3.866272e-01 -4.070036e-01 -1.717914e-03 -9.167184e-02 -1.493458e-01 -1.801856e-01 -2.158988e-01 -2.233851e-01 -2.393326e-01 -2.171678e-01 -1.970076e-01 -2.226833e-01 -2.210548e-01 -1.336074e-01 -1.419636e-01 -7.338343e-04
<VARIANCE> 39
 9.752419e+00 3.223645e+01 7.529949e+00 8.254242e+00 1.346029e+01 1.891822e+01 8.293759e+00 1.008531e+01 8.896931e+00 1.206851e+01 1.647952e+01 1.718677e+01 1.836626e-03 1.189236e-01 2.437178e-01 2.670023e-01 4.253586e-01 5.134926e-01 5.460247e-01 6.586051e-01 5.999042e-01 7.677618e-01 5.712159e-01 9.506402e-01 5.013798e-01 3.754082e-05 2.246831e-02 5.206001e-02 6.699353e-02 7.289534e-02 9.569003e-02 1.162085e-01 9.121459e-02 1.159558e-01 8.600774e-02 9.158955e-02 1.522028e-01 8.749462e-02 3.730629e-06
<GCONST> 3.309232e+01
<MIXTURE> 9 7.455552e-02
<MEAN> 39
 -1.836471e+00 4.136122e+00 -4.614744e+00 -2.726498e+00 -6.040749e+00 -5.200107e+00 -4.151106e+00 -4.232786e+00 -4.012812e+00 -4.198122e+00 -4.421276e+00 -5.997828e-01 9.350712e-01 -1.872097e-02 -1.445966e-01 -2.159922e-01 -2.153073e-01 -2.499584e-01 -3.155856e-01 -1.443075e-01 -1.502478e-01 -2.159932e-01 -2.470104e-01 -1.929085e-01 -2.776339e-01 -2.688831e-03 1.485676e-01 2.640160e-01 3.593453e-01 2.951733e-01 4.263224e-01 3.021133e-01 3.781286e-01 4.592967e-01 3.419659e-01 3.355688e-01 2.653998e-01 2.339524e-01 -1.162757e-03
<VARIANCE> 39
 1.038988e+01 3.744490e+01 8.584219e+00 1.127374e+01 1.647767e+01 2.080939e+01 1.146152e+01 1.347119e+01 1.497044e+01 1.541428e+01 2.274553e+01 2.293826e+01 3.580455e-03 1.597487e-01 2.987450e-01 4.929532e-01 5.893639e-01 8.521066e-01 7.783952e-01 7.554859e-01 9.181638e-01 7.678057e-01 8.327400e-01 1.172157e+00 6.083062e-01 3.754082e-05 2.222229e-02 4.755517e-02 7.214229e-02 8.571906e-02 1.201297e-01 1.048926e-01 1.082601e-01 1.265254e-01 1.287577e-01 1.135218e-01 1.844842e-01 1.065556e-01 3.730629e-06
<GCONST> 4.186964e+01
<MIXTURE> 10 1.812752e-01
<MEAN> 39
 -1.668907e+00 1.671661e+01 5.565178e-01 -2.514370e+00 -4.799232e+00 -4.498443e+00 -1.003539e+01 -1.270892e-01 1.352943e-01 -4.767171e+00 5.025618e+00 -4.460006e+00 8.652327e-01 2.370353e-02 -7.734691e-02 3.082692e-02 -9.880307e-02 1.914519e-01 -1.665080e-01 9.212948e-02 -8.767477e-02 3.364697e-01 1.779026e-01 4.519889e-02 7.383949e-02 -7.504658e-04 2.165702e-02 -1.094209e-01 -6.873702e-03 -8.884690e-02 1.103930e-01 -6.987250e-02 7.276616e-02 -3.302083e-02 4.689057e-02 7.162321e-02 -9.835731e-02 6.907558e-02 -2.076200e-03
<VARIANCE> 39
 8.970881e+00 2.737287e+01 1.632396e+01 2.146171e+01 1.669711e+01 2.120475e+01 2.274410e+01 2.193921e+01 2.250394e+01 2.581770e+01 1.999617e+01 1.488395e+01 5.533392e-03 3.043564e-01 3.886775e-01 3.923624e-01 6.520121e-01 4.362406e-01 4.925440e-01 6.577592e-01 7.782426e-01 6.512364e-01 7.279118e-01 5.859832e-01 5.998386e-01 7.958425e-05 6.514247e-02 6.679428e-02 8.633327e-02 1.159317e-01 1.001394e-01 1.537425e-01 1.164869e-01 1.373765e-01 1.333840e-01 1.263023e-01 1.140497e-01 1.227407e-01 9.362328e-06
<GCONST> 4.676793e+01
<STATE> 7
<NUMMIXES> 10
<MIXTURE> 1 5.078161e-02
<MEAN> 39
 -3.567873e+00 9.678943e+00 -3.228647e+00 -5.965055e+00 -6.888660e+00 -5.779068e+00 6.147240e+00 6.453977e+00 2.032514e+01 1.721463e+01 8.774053e+00 4.121945e+00 9.712517e-01 2.339717e-01 2.200034e-01 1.718147e-01 6.679066e-02 1.751657e-01 5.495197e-02 1.124279e-01 3.649426e-01 1.892043e-01 -7.876886e-02 1.468406e-01 -7.269410e-01 -7.876325e-04 -6.822176e-02 7.192797e-02 7.115836e-02 -2.953005e-02 1.036480e-01 5.252890e-02 7.136217e-02 -5.779678e-02 -1.053788e-01 1.390104e-01 1.067877e-01 4.276266e-02 -1.686046e-03
<VARIANCE> 39
 3.371647e+00 1.578462e+01 1.112593e+01 9.053901e+00 6.182902e+00 3.044110e+00 1.324671e+01 1.964839e+01 7.172843e+00 4.152293e+00 8.596354e+00 5.773154e+01 8.178990e-04 2.718793e-01 3.811297e-01 5.868716e-01 5.074565e-01 6.349073e-01 1.943193e-01 4.109909e-01 6.997175e-01 6.504110e-01 6.868560e-01 1.905576e-01 6.607158e-01 3.913368e-05 6.302404e-02 3.523504e-02 8.338893e-02 9.579206e-02 5.924486e-02 3.829946e-02 4.793442e-02 1.116459e-01 4.968457e-02 1.291850e-01 4.199612e-02 1.117902e-01 3.730629e-06
<GCONST> 2.624222e+01
<MIXTURE> 2 7.781066e-02
<MEAN> 39
 -1.420028e+00 1.113078e+01 -5.010025e+00 -4.165335e+00 -8.749013e+00 -8.845488e+00 -7.469486e+00 -2.354488e+00 -5.430607e+00 -4.693351e+00 -5.791440e+00 -2.966230e+00 8.744525e-01 1.221683e-01 1.729770e-02 1.730795e-01 -9.008315e-02 4.040024e-01 1.754544e-01 3.403870e-01 1.661536e-01 5.774930e-01 8.533422e-02 5.703766e-01 -1.081195e-01 -4.822940e-03 2.393947e-01 8.056827e-02 2.684246e-01 1.616333e-01 5.435412e-01 3.427507e-01 3.285604e-01 1.988107e-01 3.708542e-01 3.179727e-01 4.646982e-01 1.728858e-01 -3.118514e-03
<VARIANCE> 39
 8.122250e+00 4.037689e+01 1.444671e+01 1.701916e+01 1.542666e+01 2.045137e+01 3.052064e+01 3.096732e+01 4.180260e+01 3.523211e+01 4.663568e+01 5.321844e+01 5.572887e-03 2.810771e-01 2.578264e-01 7.132121e-01 7.972507e-01 6.505020e-01 9.335444e-01 7.794725e-01 1.297325e+00 1.147828e+00 1.483022e+00 1.272411e+00 1.006715e+00 4.630163e-05 5.411319e-02 6.078267e-02 8.815587e-02 1.470183e-01 1.433031e-01 1.976949e-01 2.175480e-01 2.001757e-01 2.746888e-01 2.004505e-01 3.179718e-01 3.080095e-01 1.328868e-05
<GCONST> 5.941265e+01
<MIXTURE> 3 1.534907e-01
<MEAN> 39
 1.557344e-03 1.111875e+01 -7.992277e-01 -2.337723e-01 -2.977517e+00 -4.314102e+00 -4.446611e+00 -6.119614e-01 -1.098428e+00 -9.297850e-01 5.570661e-01 -2.851689e-01 8.686314e-01 3.097014e-01 -8.345293e-02 2.930109e-02 1.706994e-01 1.695552e-01 -9.702849e-02 -7.667011e-02 6.472833e-02 1.401584e-01 3.797657e-01 6.453194e-03 -1.154027e-01 -1.181513e-02 1.353155e-01 -1.178907e-01 1.535987e-02 -4.698053e-02 6.695028e-02 1.490367e-02 3.810261e-02 -2.727335e-02 -3.311596e-02 -1.868550e-02 -8.895535e-02 -4.456998e-02 -3.556771e-03
<VARIANCE> 39
 1.468593e+01 3.754676e+01 1.263084e+01 1.195387e+01 1.231932e+01 2.418462e+01 3.353870e+01 1.368396e+01 1.974050e+01 2.640085e+01 2.414264e+01 1.877877e+01 4.151971e-03 2.916123e-01 3.668845e-01 6.614928e-01 6.699337e-01 7.456323e-01 6.519521e-01 1.166176e+00 9.139568e-01 1.126897e+00 1.187604e+00 1.034456e+00 9.422527e-01 5.356854e-05 5.133571e-02 6.568141e-02 1.300474e-01 8.409245e-02 1.074222e-01 1.431396e-01 2.408541e-01 1.526039e-01 1.750115e-01 2.086964e-01 1.518226e-01 1.715725e-01 1.001642e-05
<GCONST> 5.229089e+01
<MIXTURE> 4 7.924803e-02
<MEAN> 39
 -3.607411e-01 1.329266e+01 -5.651446e+00 5.137288e-02 -6.164869e+00 -6.206917e+00 -1.874496e+00 -2.377682e+00 1.334527e-01 8.427562e-01 7.042318e-01 6.611842e+00 8.971034e-01 -4.074585e-01 -3.924893e-01 -8.200057e-02 -9.264530e-01 1.583341e-01 -5.850395e-01 1.311096e-01 -2.184234e-01 1.312571e-01 -1.081730e-01 3.848231e-01 -2.597334e-01 -9.974769e-04 -4.734678e-02 -2.851850e-01 1.593952e-01 -4.810288e-01 1.579650e-01 -2.760599e-01 -6.060508e-02 -1.551541e-02 -1.570560e-01 -1.043564e-01 -9.525383e-02 -3.449257e-01 -3.392605e-03
<VARIANCE> 39
 2.018711e+01 2.565219e+01 1.872165e+01 2.022720e+01 1.973962e+01 2.489944e+01 2.889780e+01 2.379317e+01 3.124582e+01 3.890656e+01 7.797083e+01 8.190233e+01 4.984537e-03 3.738890e-01 5.549771e-01 7.768542e-01 7.662318e-01 1.299539e+00 1.072295e+00 1.572672e+00 9.757349e-01 1.403868e+00 1.217392e+00 1.382408e+00 1.335717e+00 5.214118e-05 5.838445e-02 9.935459e-02 1.176667e-01 1.735838e-01 2.544692e-01 2.367584e-01 3.445647e-01 2.416457e-01 2.126425e-01 2.692939e-01 3.196259e-01 3.225347e-01 8.711817e-06
<GCONST> 6.599514e+01
<MIXTURE> 5 1.536117e-01
<MEAN> 39
 1.085575e-03 1.130962e+01 -8.818403e-01 -1.941077e-01 -2.988207e+00 -4.560132e+00 -4.618861e+00 -6.860824e-01 -1.165414e+00 -8.412716e-01 5.238665e-01 -2.500556e-01 8.694878e-01 2.975709e-01 -7.823146e-02 5.177749e-02 1.711146e-01 1.667327e-01 -8.319256e-02 -8.394322e-02 6.064354e-02 1.456193e-01 3.611589e-01 1.530508e-02 -1.280256e-01 -1.189079e-02 1.337628e-01 -1.186612e-01 2.990333e-02 -5.615179e-02 6.639313e-02 3.055620e-02 5.029092e-02 -2.342639e-02 -3.747847e-02 -2.638257e-02 -8.654919e-02 -5.017363e-02 -3.675659e-03
<VARIANCE> 39
 1.464068e+01 3.736002e+01 1.280661e+01 1.225265e+01 1.244791e+01 2.471165e+01 3.381055e+01 1.381656e+01 2.042890e+01 2.667225e+01 2.404962e+01 1.913463e+01 4.060389e-03 2.790002e-01 3.478051e-01 6.360326e-01 6.579157e-01 7.293897e-01 6.262442e-01 1.130404e+00 8.968537e-01 1.097183e+00 1.166628e+00 1.007946e+00 9.204717e-01 5.248174e-05 4.986269e-02 6.414634e-02 1.265911e-01 8.091655e-02 1.064321e-01 1.395406e-01 2.349940e-01 1.495616e-01 1.760745e-01 2.069102e-01 1.479724e-01 1.661747e-01 9.546724e-06
<GCONST> 5.172052e+01
<MIXTURE> 6 7.907546e-02
<MEAN> 39
 -3.274890e-01 1.329429e+01 -5.640631e+00 7.053633e-02 -6.172766e+00 -6.205601e+00 -1.939761e+00 -2.376974e+00 1.068092e-01 8.055192e-01 6.223199e-01 6.493232e+00 8.968248e-01 -4.113600e-01 -3.895631e-01 -8.398114e-02 -9.305320e-01 1.565073e-01 -5.813730e-01 1.293119e-01 -2.202453e-01 1.334193e-01 -1.206144e-01 3.823996e-01 -2.630670e-01 -1.014395e-03 -4.865204e-02 -2.832842e-01 1.606479e-01 -4.811265e-01 1.608129e-01 -2.763008e-01 -5.393480e-02 -1.421420e-02 -1.540944e-01 -1.065720e-01 -9.309995e-02 -3.427098e-01 -3.386774e-03
<VARIANCE> 39
 2.010267e+01 2.561919e+01 1.880998e+01 2.035533e+01 1.965599e+01 2.511613e+01 2.943246e+01 2.405541e+01 3.120992e+01 3.861039e+01 7.752601e+01 8.176220e+01 4.983912e-03 3.748178e-01 5.564896e-01 7.809916e-01 7.738676e-01 1.299413e+00 1.078876e+00 1.575407e+00 9.797482e-01 1.412614e+00 1.229682e+00 1.389148e+00 1.341584e+00 5.243231e-05 5.854027e-02 9.973780e-02 1.181315e-01 1.735288e-01 2.550561e-01 2.383083e-01 3.505869e-01 2.440209e-01 2.140114e-01 2.724151e-01 3.220984e-01 3.244115e-01 8.731291e-06
<GCONST> 6.616118e+01
<MIXTURE> 7 7.855965e-02
<MEAN> 39
 -2.707088e-01 1.331529e+01 -5.665474e+00 1.251790e-01 -6.201515e+00 -6.326609e+00 -2.144774e+00 -2.437571e+00 -1.224229e-01 5.258327e-01 5.289344e-02 6.082240e+00 8.954321e-01 -4.020828e-01 -3.749624e-01 -7.823258e-02 -9.185612e-01 1.819838e-01 -5.674464e-01 1.530060e-01 -2.187888e-01 1.618655e-01 -1.499608e-01 3.670752e-01 -3.012570e-01 -1.243415e-03 -4.647988e-02 -2.777009e-01 1.740543e-01 -4.864773e-01 1.788653e-01 -2.720707e-01 -3.148095e-02 -1.309100e-02 -1.520226e-01 -1.020967e-01 -7.332888e-02 -3.302585e-01 -3.337554e-03
<VARIANCE> 39
 1.964020e+01 2.599637e+01 1.861742e+01 2.063677e+01 1.883119e+01 2.528724e+01 2.979562e+01 2.433628e+01 3.026773e+01 3.698646e+01 7.347614e+01 7.928345e+01 5.022326e-03 3.723264e-01 5.438866e-01 7.699115e-01 7.678090e-01 1.244826e+00 1.064663e+00 1.578122e+00 9.831970e-01 1.409414e+00 1.238005e+00 1.343658e+00 1.312158e+00 4.940354e-05 5.640387e-02 9.890552e-02 1.159157e-01 1.738257e-01 2.498205e-01 2.363602e-01 3.560168e-01 2.427225e-01 2.177528e-01 2.651967e-01 3.152662e-01 3.135499e-01 8.439319e-06
<GCONST> 6.559949e+01
<MIXTURE> 8 7.084739e-02
<MEAN> 39
 -2.020177e-01 1.593843e+01 -4.561969e+00 -2.409345e-01 -6.379007e+00 -7.537374e+00 -1.429101e+00 -1.269245e+00 -2.665657e+00 5.711486e-01 -5.681477e+00 1.787045e+00 8.980038e-01 -7.442250e-01 -8.163163e-01 -8.418131e-01 -1.541186e+00 -6.389539e-01 -1.702982e+00 -4.903016e-01 -1.242840e+00 -4.723661e-01 -1.022846e+00 -6.530059e-01 -1.208451e+00 7.889078e-04 -1.160283e-01 -3.197019e-01 -4.109186e-02 -5.088276e-01 -1.001655e-02 -3.319700e-01 -9.985603e-02 -2.111974e-01 -7.674967e-02 -3.379844e-01 6.385989e-02 -3.132376e-01 -1.768739e-03
<VARIANCE> 39
 1.123977e+01 2.410800e+01 1.014134e+01 1.483875e+01 1.321410e+01 2.125876e+01 1.471652e+01 3.392594e+01 1.677034e+01 1.177466e+01 2.571514e+01 3.332646e+01 3.756366e-03 2.005791e-01 2.431930e-01 2.504899e-01 4.105657e-01 7.006101e-01 4.783254e-01 4.263427e-01 5.160884e-01 4.705503e-01 8.488091e-01 9.252560e-01 1.015752e+00 4.016259e-05 4.144761e-02 8.897453e-02 1.099507e-01 9.700042e-02 1.082546e-01 1.741684e-01 1.694880e-01 1.694010e-01 1.244699e-01 1.936339e-01 1.732268e-01 1.474400e-01 4.906184e-06
<GCONST> 4.431138e+01
<MIXTURE> 9 4.822883e-02
<MEAN> 39
 -1.306353e+00 1.173324e+01 -3.809860e+00 -4.248192e+00 -6.999835e+00 -7.111380e+00 -6.419766e+00 -3.139564e+00 -2.303696e+00 -2.947485e+00 -2.822082e+00 -4.664133e+00 8.230809e-01 1.383680e-01 -1.585683e-01 2.693388e-03 1.184854e-01 5.041587e-01 4.686578e-02 3.830801e-02 -3.174498e-01 4.373232e-01 3.225036e-02 2.706585e-01 -6.734772e-02 -2.370797e-03 2.987950e-01 2.117304e-02 1.193386e-01 1.414133e-01 5.076237e-01 2.482251e-01 1.825061e-01 1.820318e-01 3.243715e-01 1.911433e-01 3.196871e-01 3.749304e-01 -3.055459e-03
<VARIANCE> 39
 1.044749e+01 5.478105e+01 2.971022e+01 3.075210e+01 2.805708e+01 4.003576e+01 3.569669e+01 2.851826e+01 3.522946e+01 4.364472e+01 5.023167e+01 5.280686e+01 1.956191e-02 3.870197e-01 4.554494e-01 9.451784e-01 1.468204e+00 1.142075e+00 1.665986e+00 1.298080e+00 2.156489e+00 1.627384e+00 2.192886e+00 1.550266e+00 1.348024e+00 1.124402e-04 8.482143e-02 5.713497e-02 1.474816e-01 1.561702e-01 2.422702e-01 2.626528e-01 3.154549e-01 2.487497e-01 2.047099e-01 3.286690e-01 4.003065e-01 4.001447e-01 3.747722e-05
<GCONST> 7.413960e+01
<MIXTURE> 10 2.083455e-01
<MEAN> 39
 -2.505075e+00 1.712210e+01 2.478596e-01 -3.933347e+00 -5.375772e+00 -5.443177e+00 -1.048631e+01 -9.812882e-01 6.180218e-01 -5.119732e+00 6.003214e+00 -4.955958e+00 8.839625e-01 -1.829150e-01 -4.518937e-01 1.822285e-01 -9.848215e-01 5.522364e-01 -4.262281e-01 4.242364e-01 -7.891016e-02 4.958837e-01 2.218708e-01 -1.604381e-01 3.490165e-01 2.280710e-03 4.297361e-02 -3.048280e-01 2.324689e-01 -3.469863e-01 1.979851e-01 1.928654e-02 1.499728e-01 1.659676e-01 2.968890e-02 1.551349e-01 -3.055252e-01 2.294788e-01 -2.740173e-03
<VARIANCE> 39
 7.945663e+00 2.703338e+01 1.553990e+01 1.595295e+01 1.656141e+01 1.953100e+01 1.832762e+01 2.793992e+01 2.661096e+01 2.413275e+01 1.631411e+01 1.218092e+01 4.834717e-03 1.589737e-01 2.692900e-01 3.596155e-01 4.918725e-01 4.630146e-01 7.199916e-01 5.190120e-01 7.939470e-01 1.089903e+00 7.195751e-01 9.184313e-01 6.751893e-01 7.931199e-05 3.181967e-02 6.228584e-02 1.094560e-01 1.213058e-01 9.295432e-02 1.348200e-01 1.521609e-01 1.856290e-01 1.272108e-01 1.391594e-01 9.748793e-02 9.770309e-02 1.062722e-05
<GCONST> 4.533943e+01
<STATE> 8
<NUMMIXES> 10
<MIXTURE> 1 1.326499e-02
<MEAN> 39
 -6.290151e+00 4.362332e+00 -9.625679e+00 -3.360476e+00 -1.104501e+01 -7.534227e+00 -5.258478e+00 -5.188706e+00 7.012800e+00 9.816870e+00 1.896120e+01 1.916842e+01 9.719332e-01 5.935718e-01 -1.424102e-01 5.763254e-02 2.672368e-01 6.492090e-01 2.231627e-01 -1.867135e-01 -1.799856e-01 1.384374e+00 1.417708e+00 3.844673e-02 -6.845166e-01 1.592141e-03 2.478129e-01 5.021557e-01 5.437580e-01 3.714143e-01 8.964531e-01 4.556966e-01 4.358939e-01 1.332417e-01 -3.327217e-03 -1.307212e-01 -5.551296e-01 -2.999051e-02 -2.066206e-03
<VARIANCE> 39
 6.297647e+00 3.335994e+00 2.529561e+00 9.450191e+00 4.051470e+01 4.961897e+00 1.049850e+01 1.109531e+01 1.275148e+01 1.519029e+01 1.922979e+01 1.383240e+01 1.003224e-03 7.188808e-01 8.466606e-01 9.006979e-01 8.026773e-01 2.485152e+00 1.494869e+00 9.212591e-01 1.037951e+00 1.346236e+00 2.050509e+00 1.561901e+00 1.427976e+00 3.754082e-05 4.960435e-02 2.952177e-02 5.026581e-02 4.269566e-02 1.150587e-01 1.270660e-01 4.459049e-02 2.328995e-01 1.818137e-01 2.523656e-01 1.334446e-01 2.442558e-01 8.775977e-06
<GCONST> 4.436497e+01
<MIXTURE> 2 5.631496e-02
<MEAN> 39
 -2.483987e+00 1.118705e+01 -4.561882e+00 -2.094618e+00 -4.907753e+00 -4.713987e+00 1.931425e+00 1.714738e+00 1.027297e+01 1.257391e+01 1.338603e+01 1.211901e+01 9.382044e-01 -2.437377e-01 -1.288766e-01 1.426908e-01 -6.583469e-01 7.396768e-01 -3.263187e-01 1.869108e-01 -1.486456e-01 -2.483214e-01 3.916657e-01 -3.456272e-01 -1.228744e-01 -8.684523e-03 1.023615e-01 -3.448927e-01 3.463264e-02 -1.681357e-01 -7.524449e-03 -7.460906e-02 -2.001878e-01 -1.000237e-01 -3.552229e-01 -3.767655e-01 -4.248388e-01 -4.046165e-01 -7.497516e-03
<VARIANCE> 39
 1.745004e+01 1.322907e+01 2.090009e+01 1.469165e+01 2.929417e+01 2.257822e+01 3.163189e+01 4.198570e+01 6.955926e+01 5.772502e+01 2.469304e+01 8.516286e+01 3.180298e-03 1.236381e+00 9.661648e-01 1.592833e+00 1.262189e+00 1.978739e+00 1.376467e+00 1.328670e+00 1.820883e+00 1.250330e+00 1.465899e+00 1.700121e+00 2.176958e+00 1.090527e-04 1.265873e-01 1.829849e-01 3.540826e-01 1.899562e-01 3.124205e-01 2.206505e-01 3.292759e-01 3.371744e-01 2.932453e-01 4.594359e-01 3.119001e-01 5.526325e-01 2.058719e-05
<GCONST> 7.639204e+01
<MIXTURE> 3 1.009896e-01
<MEAN> 39
 -1.776844e+00 1.120204e+01 -3.583433e+00 -3.385584e+00 -7.084920e+00 -7.874269e+00 -4.471012e+00 -2.972067e+00 -3.832617e+00 -2.719033e+00 -4.713306e+00 -1.795071e+00 8.515511e-01 2.956450e-01 -6.811804e-02 1.076052e-01 -2.526057e-01 7.230834e-01 4.708109e-01 4.794708e-01 1.958287e-01 3.365809e-01 2.233344e-01 8.115065e-01 -1.306896e-01 -1.255040e-02 3.281716e-01 -5.231072e-04 2.306809e-01 1.740212e-01 4.393141e-01 3.026251e-01 2.092124e-01 2.495390e-01 2.515609e-01 1.607481e-01 2.791464e-01 1.208448e-01 -5.116544e-03
<VARIANCE> 39
 1.189372e+01 3.586514e+01 1.849174e+01 2.151066e+01 1.619452e+01 2.997971e+01 2.799351e+01 2.838397e+01 2.266451e+01 2.751198e+01 2.886890e+01 3.988961e+01 1.128772e-02 7.489631e-01 4.701225e-01 1.009730e+00 1.203914e+00 1.336959e+00 1.414640e+00 1.907412e+00 1.608069e+00 1.856470e+00 2.183437e+00 2.246098e+00 2.016000e+00 1.643747e-04 8.485610e-02 8.010253e-02 1.456036e-01 1.430217e-01 1.678690e-01 2.113840e-01 3.224106e-01 2.918751e-01 2.799388e-01 2.551767e-01 2.980107e-01 2.604692e-01 2.881709e-05
<GCONST> 7.047385e+01
<MIXTURE> 4 1.012531e-01
<MEAN> 39
 3.917626e+00 1.170986e+01 -5.254818e+00 7.721325e-01 -2.354779e+00 -5.418583e+00 -2.976570e+00 -1.617952e+00 1.303544e+00 6.902407e-01 -2.669496e+00 4.593396e-01 8.385891e-01 4.476113e-01 -5.738845e-01 1.509733e-01 -1.110485e-01 5.332661e-01 -4.220642e-01 -2.178940e-01 6.333587e-02 1.148665e-01 9.001793e-02 -1.472382e-01 -1.860297e-02 -8.070854e-03 -3.984425e-02 -1.390929e-01 2.703125e-01 -9.206936e-02 -4.249532e-02 -2.957622e-02 -8.181118e-02 -6.752785e-02 -2.650096e-01 -2.340025e-01 -4.732115e-03 -8.778287e-02 -3.064763e-03
<VARIANCE> 39
 1.628200e+01 3.911675e+01 3.042768e+01 1.742954e+01 2.434019e+01 2.290102e+01 2.499740e+01 2.958767e+01 2.558617e+01 4.275103e+01 3.846751e+01 3.695747e+01 6.145508e-03 5.419602e-01 6.264159e-01 1.581361e+00 1.666149e+00 1.633947e+00 1.721350e+00 1.634417e+00 1.887547e+00 1.771839e+00 2.447875e+00 2.258124e+00 2.137610e+00 1.152185e-04 5.894328e-02 1.068037e-01 2.221268e-01 1.909105e-01 1.944648e-01 2.385410e-01 2.878360e-01 2.801041e-01 2.754378e-01 2.997489e-01 2.996276e-01 3.302353e-01 1.377144e-05
<GCONST> 7.270636e+01
<MIXTURE> 5 1.044592e-01
<MEAN> 39
 -1.743380e+00 1.107345e+01 -3.743855e+00 -3.442732e+00 -7.219877e+00 -8.043537e+00 -4.639940e+00 -2.875376e+00 -4.167336e+00 -2.814610e+00 -4.749695e+00 -1.485937e+00 8.691992e-01 2.366084e-01 -7.198402e-02 1.252034e-01 -2.928437e-01 6.806515e-01 4.501169e-01 4.789038e-01 1.783971e-01 2.647252e-01 1.578995e-01 7.882873e-01 -2.644243e-01 -1.373665e-02 3.174896e-01 7.015517e-03 2.572323e-01 1.719951e-01 4.472184e-01 3.086236e-01 2.318651e-01 2.191424e-01 2.358893e-01 1.433291e-01 2.580042e-01 9.294983e-02 -5.616857e-03
<VARIANCE> 39
 1.158305e+01 3.586531e+01 1.687752e+01 1.828394e+01 1.453479e+01 2.534054e+01 2.649508e+01 2.904168e+01 2.134774e+01 2.488186e+01 2.854625e+01 3.916457e+01 5.931791e-03 7.204494e-01 4.755428e-01 9.958060e-01 1.133830e+00 1.309624e+00 1.274693e+00 1.979283e+00 1.547093e+00 1.897674e+00 2.211370e+00 2.211899e+00 1.929459e+00 1.095796e-04 8.267649e-02 7.961968e-02 1.460511e-01 1.433398e-01 1.620094e-01 2.021932e-01 3.372799e-01 2.853877e-01 2.906648e-01 2.567571e-01 2.724310e-01 2.604252e-01 1.913982e-05
<GCONST> 6.785458e+01
<MIXTURE> 6 1.012179e-01
<MEAN> 39
 3.898201e+00 1.169253e+01 -5.230384e+00 7.625210e-01 -2.352999e+00 -5.410318e+00 -2.962291e+00 -1.601676e+00 1.293405e+00 6.970603e-01 -2.649856e+00 4.713366e-01 8.389230e-01 4.465942e-01 -5.733928e-01 1.500179e-01 -1.131812e-01 5.356504e-01 -4.212370e-01 -2.161219e-01 6.275805e-02 1.160978e-01 9.283619e-02 -1.469644e-01 -2.208186e-02 -8.085679e-03 -3.938333e-02 -1.394297e-01 2.691588e-01 -9.189902e-02 -4.181850e-02 -2.929355e-02 -8.258506e-02 -6.798481e-02 -2.643627e-01 -2.339223e-01 -6.082851e-03 -8.901154e-02 -3.069034e-03
<VARIANCE> 39
 1.629488e+01 3.916950e+01 3.031270e+01 1.740433e+01 2.431204e+01 2.290962e+01 2.499673e+01 2.934160e+01 2.552483e+01 4.268628e+01 3.839465e+01 3.692785e+01 6.134190e-03 5.440735e-01 6.270148e-01 1.580528e+00 1.667274e+00 1.634567e+00 1.719277e+00 1.635091e+00 1.882081e+00 1.767109e+00 2.448682e+00 2.261782e+00 2.141632e+00 1.150136e-04 5.902653e-02 1.069331e-01 2.223165e-01 1.907076e-01 1.945857e-01 2.383686e-01 2.879429e-01 2.797074e-01 2.753321e-01 2.996719e-01 2.995525e-01 3.304763e-01 1.379769e-05
<GCONST> 7.268970e+01
<MIXTURE> 7 1.012760e-01
<MEAN> 39
 3.927852e+00 1.171749e+01 -5.271681e+00 7.791604e-01 -2.345253e+00 -5.421875e+00 -2.987728e+00 -1.622588e+00 1.316313e+00 7.016214e-01 -2.680502e+00 4.406166e-01 8.383998e-01 4.487213e-01 -5.738388e-01 1.495849e-01 -1.096828e-01 5.336723e-01 -4.224687e-01 -2.174488e-01 6.397273e-02 1.160795e-01 8.961854e-02 -1.496840e-01 -1.713596e-02 -8.049484e-03 -4.009915e-02 -1.388188e-01 2.710883e-01 -9.242178e-02 -4.317468e-02 -2.963058e-02 -8.088189e-02 -6.721702e-02 -2.657748e-01 -2.349820e-01 -3.937726e-03 -8.618263e-02 -3.057621e-03
<VARIANCE> 39
 1.627135e+01 3.908171e+01 3.046624e+01 1.744840e+01 2.437329e+01 2.292888e+01 2.502243e+01 2.971901e+01 2.560021e+01 4.285884e+01 3.852201e+01 3.702402e+01 6.149217e-03 5.406059e-01 6.266856e-01 1.584413e+00 1.666391e+00 1.634375e+00 1.723532e+00 1.634310e+00 1.890295e+00 1.773470e+00 2.449665e+00 2.258711e+00 2.134124e+00 1.153545e-04 5.892210e-02 1.068081e-01 2.222668e-01 1.913205e-01 1.945104e-01 2.391105e-01 2.876704e-01 2.803239e-01 2.752733e-01 3.001561e-01 2.995131e-01 3.303771e-01 1.375194e-05
<GCONST> 7.273109e+01
<MIXTURE> 8 1.192800e-01
<MEAN> 39
 -1.838112e+00 1.353814e+01 -8.013620e+00 -2.330102e+00 -8.461621e+00 -1.144313e+01 -3.357773e+00 -5.424431e+00 -3.920317e+00 -3.483323e+00 -6.128694e+00 5.890926e-01 8.973573e-01 -6.620721e-01 -7.757655e-01 -2.527258e-02 -1.891862e+00 5.881942e-01 -1.473618e+00 7.040034e-01 -6.903265e-01 1.710091e-01 -7.356780e-01 1.379733e-01 -1.089856e+00 -1.471969e-03 2.305550e-01 -2.476308e-01 6.807397e-01 -2.353389e-01 5.827319e-01 3.203956e-01 2.585659e-01 5.998367e-01 1.424364e-01 3.447660e-01 2.985550e-01 4.586153e-02 -3.531211e-03
<VARIANCE> 39
 1.291750e+01 1.728217e+01 1.559294e+01 2.221884e+01 1.931577e+01 2.469769e+01 1.784204e+01 2.839408e+01 2.463806e+01 2.362216e+01 2.677145e+01 4.212445e+01 3.482430e-03 3.119062e-01 5.761889e-01 8.927529e-01 9.854974e-01 1.677634e+00 1.311719e+00 1.979008e+00 1.340034e+00 1.583568e+00 1.067797e+00 9.446999e-01 9.541589e-01 4.611079e-05 4.634721e-02 1.482435e-01 1.877345e-01 2.689406e-01 2.553383e-01 2.359929e-01 4.132798e-01 2.546551e-01 3.804588e-01 3.558248e-01 2.747829e-01 2.647795e-01 9.472094e-06
<GCONST> 6.420504e+01
<MIXTURE> 9 5.744642e-02
<MEAN> 39
 -2.904926e+00 1.092336e+01 -7.629498e+00 -4.077393e+00 -1.079648e+01 -9.335064e+00 -9.924065e-01 -1.863068e+00 2.500442e+00 7.323258e+00 1.510795e+01 1.888870e+01 9.299225e-01 -4.059937e-01 -5.592298e-01 1.439224e-01 -9.124376e-01 1.375629e-01 -8.632548e-01 -3.732414e-01 -2.514621e-01 -1.549875e-01 4.933735e-01 -1.907282e-01 7.955158e-02 -2.487348e-03 3.121276e-01 1.580718e-02 3.925830e-01 5.225470e-02 3.928471e-01 2.513173e-01 -3.173555e-02 9.339008e-02 -6.210900e-02 -1.957281e-01 -6.640851e-01 -6.877738e-01 -6.139766e-03
<VARIANCE> 39
 2.797776e+01 1.325621e+01 2.106547e+01 1.314578e+01 6.346321e+01 3.736008e+01 2.099392e+01 1.107059e+01 3.732855e+01 4.489408e+01 5.173011e+01 4.016417e+01 2.815855e-03 5.572262e-01 8.523133e-01 9.911109e-01 1.274842e+00 2.703719e+00 1.318964e+00 1.649587e+00 1.316138e+00 9.945218e-01 1.480983e+00 2.914527e+00 2.123336e+00 1.004069e-04 9.186711e-02 1.487163e-01 2.415878e-01 1.753971e-01 3.180737e-01 2.704040e-01 5.129580e-01 1.739989e-01 2.379027e-01 3.266867e-01 3.122617e-01 5.375459e-01 1.959990e-05
<GCONST> 7.266344e+01
<MIXTURE> 10 2.444969e-01
<MEAN> 39
 -1.970340e+00 1.578828e+01 9.066074e-01 -3.872935e+00 -4.127475e+00 -5.628646e+00 -1.025584e+01 -6.024135e-01 7.925025e-01 -4.578619e+00 5.457459e+00 -3.784610e+00 8.689115e-01 3.390902e-02 -6.726242e-01 5.083926e-01 -1.121865e+00 6.961651e-01 -2.824497e-01 6.320741e-01 2.084705e-01 4.477338e-01 3.559708e-01 -3.857436e-01 4.669893e-01 -6.655221e-03 2.075946e-01 -3.519197e-01 2.371965e-01 -8.413089e-02 8.642148e-02 3.134885e-01 3.082898e-01 1.950113e-01 -8.077131e-02 1.385420e-01 -3.454904e-01 1.140890e-01 -5.556890e-03
<VARIANCE> 39
 8.587979e+00 2.200013e+01 1.335715e+01 1.813284e+01 1.672972e+01 2.202019e+01 2.165108e+01 2.224448e+01 3.223009e+01 2.468979e+01 1.533329e+01 1.635997e+01 5.539444e-03 3.849596e-01 5.508474e-01 5.320726e-01 1.419947e+00 8.307251e-01 1.060006e+00 1.101605e+00 1.216245e+00 1.353520e+00 1.334570e+00 1.145697e+00 1.001350e+00 1.616468e-04 4.299847e-02 1.112682e-01 1.480558e-01 1.684545e-01 1.996770e-01 1.683861e-01 2.625248e-01 2.202681e-01 2.469435e-01 2.146690e-01 1.785232e-01 1.714880e-01 2.508700e-05
<GCONST> 5.954244e+01
<STATE> 9
<NUMMIXES> 10
<MIXTURE> 1 1.114553e-02
<MEAN> 39
 -4.693820e+00 1.028083e+01 -7.339720e+00 -1.917182e+00 -7.540711e+00 -4.121877e+00 -8.091426e-01 -3.517872e+00 -4.193583e+00 -2.238914e+00 -3.823667e+00 2.360902e+00 8.536241e-01 4.985601e-01 1.024465e+00 2.829467e-01 -4.900161e-01 9.976874e-02 7.865306e-02 2.289796e+00 1.684912e+00 2.533607e+00 1.967164e+00 1.399986e+00 1.144794e+00 -2.723109e-02 3.581054e-01 1.315997e-01 6.248271e-01 4.885632e-02 6.723582e-01 3.982386e-01 5.670118e-01 9.259898e-01 1.047136e+00 4.829474e-01 3.156770e-01 2.061898e-01 -3.797324e-03
<VARIANCE> 39
 1.608594e+01 1.597265e+01 5.666566e+00 4.489448e+00 4.611210e+00 1.554897e+01 1.260857e+01 3.114344e+01 5.468359e+00 2.009046e+01 1.357128e+01 1.306028e+01 8.178990e-04 4.820978e-01 4.966406e-01 1.370881e+00 1.742152e-01 6.636025e-01 3.944772e-01 4.421584e+00 2.585547e+00 2.531743e+00 4.567076e+00 2.510967e+00 2.128581e+00 2.059482e-04 1.059344e-01 7.489046e-02 8.149634e-02 1.548453e-01 8.948036e-02 2.932350e-02 3.372725e-01 6.366521e-01 3.768210e-02 2.083355e-01 2.101454e-02 2.221018e-01 3.508220e-05
<GCONST> 5.018364e+01
<MIXTURE> 2 7.738578e-02
<MEAN> 39
 -1.657298e+00 1.331686e+01 -6.559816e+00 -6.088636e+00 -7.433064e+00 -1.157741e+01 -4.701570e+00 -4.521330e+00 -3.937206e+00 -4.173732e+00 -4.920214e+00 -2.343819e+00 8.681760e-01 3.761054e-02 -6.263109e-01 1.084734e+00 -1.441428e+00 1.551667e+00 -3.134594e-01 7.993756e-01 7.452983e-01 4.918873e-01 8.971938e-02 1.173524e+00 -7.297615e-01 -1.237595e-02 3.551210e-01 -1.524828e-01 7.784634e-01 4.244079e-01 5.761655e-01 8.789657e-01 2.733060e-01 6.856301e-01 3.041552e-01 4.937716e-01 2.704526e-01 2.075837e-01 -9.415923e-03
<VARIANCE> 39
 1.711986e+01 3.040162e+01 1.897951e+01 2.477742e+01 1.441933e+01 2.376856e+01 3.373694e+01 3.076103e+01 1.947323e+01 2.114087e+01 2.057735e+01 4.790119e+01 5.181874e-03 5.996680e-01 7.122521e-01 1.185374e+00 2.438041e+00 1.403908e+00 2.019741e+00 3.177556e+00 1.918149e+00 2.438421e+00 1.766464e+00 2.496334e+00 2.273611e+00 1.515724e-04 1.246252e-01 2.508246e-01 2.672150e-01 3.529190e-01 2.577310e-01 2.422124e-01 4.515986e-01 3.282354e-01 4.595166e-01 4.710837e-01 2.938179e-01 4.259036e-01 5.892960e-05
<GCONST> 7.812312e+01
<MIXTURE> 3 1.621242e-01
<MEAN> 39
 1.705146e+00 9.650282e+00 -2.597421e+00 -7.825804e-01 -3.031201e+00 -5.102713e+00 -3.306115e+00 -6.406189e-01 -1.332499e+00 -2.433975e-01 -1.791469e+00 -4.950089e-02 8.267972e-01 7.849110e-01 -3.665463e-01 3.091297e-01 2.048753e-01 8.239312e-01 3.672647e-01 2.461243e-01 -2.132166e-02 1.635126e-01 2.760987e-01 2.904577e-01 -3.076008e-01 -1.753167e-02 5.745192e-02 -3.580066e-02 2.876264e-01 2.014185e-01 1.665505e-01 1.804285e-01 1.634122e-02 -9.534030e-02 -3.266473e-02 -4.572163e-02 4.554163e-02 -2.742658e-02 -5.891634e-03
<VARIANCE> 39
 1.744678e+01 4.449267e+01 1.800675e+01 2.214294e+01 1.677270e+01 2.669917e+01 2.508253e+01 2.244080e+01 2.623911e+01 2.649885e+01 3.455704e+01 2.630556e+01 1.008438e-02 8.959079e-01 5.665182e-01 1.316274e+00 1.004606e+00 1.840108e+00 1.529300e+00 2.079277e+00 1.598688e+00 2.178061e+00 1.678653e+00 2.691505e+00 2.331026e+00 2.602667e-04 9.368832e-02 1.058434e-01 2.068664e-01 2.148804e-01 1.467034e-01 2.365485e-01 2.898675e-01 3.929720e-01 2.900961e-01 3.176967e-01 3.194454e-01 2.797947e-01 3.221314e-05
<GCONST> 7.383102e+01
<MIXTURE> 4 5.902328e-02
<MEAN> 39
 -3.539244e+00 1.283735e+01 -1.641173e+00 -5.835224e+00 -1.425687e+00 -9.272324e+00 -2.733083e+00 -2.017484e+00 1.440460e+00 -8.886817e-01 1.351605e+00 5.467432e-01 8.914604e-01 -1.245255e-01 -1.863347e+00 1.209963e+00 -2.621102e+00 1.046061e+00 -2.814593e-01 3.940573e-01 1.005221e+00 -2.644938e-01 3.438101e-01 -4.379105e-01 -1.406987e-01 -2.849525e-03 3.101783e-01 -5.923477e-01 3.741698e-01 1.515449e-01 -5.134616e-01 8.091883e-01 -2.691283e-01 2.513754e-01 -2.574114e-01 -1.596197e-01 -2.424318e-01 -1.495241e-01 -4.429529e-03
<VARIANCE> 39
 1.727263e+01 2.924077e+01 2.019997e+01 1.933514e+01 1.872926e+01 2.837845e+01 5.291142e+01 3.101022e+01 2.543747e+01 2.700548e+01 3.941222e+01 4.533276e+01 5.226342e-03 3.365696e-01 7.059022e-01 1.183258e+00 1.427570e+00 1.450302e+00 2.039972e+00 2.108968e+00 1.600597e+00 2.222111e+00 2.585401e+00 1.589180e+00 1.952384e+00 1.290613e-04 9.964051e-02 1.742564e-01 1.477006e-01 1.865735e-01 3.251937e-01 2.955658e-01 4.927721e-01 3.210576e-01 2.755150e-01 3.708402e-01 3.499696e-01 2.901903e-01 2.275948e-05
<GCONST> 7.453844e+01
<MIXTURE> 5 1.823398e-01
<MEAN> 39
 1.855363e+00 9.447319e+00 -2.355966e+00 -6.020199e-01 -3.346139e+00 -5.549744e+00 -3.638253e+00 -1.212772e+00 -1.970884e+00 -5.767978e-01 -2.671802e+00 9.276277e-01 8.458076e-01 5.964343e-01 -3.766650e-01 5.714048e-01 1.271891e-01 6.965359e-01 1.945110e-01 -2.891887e-03 -1.628820e-01 -9.638406e-04 1.292234e-01 3.442682e-01 -4.330956e-01 -2.003922e-02 4.691178e-02 -5.267137e-02 3.105114e-01 2.237902e-01 1.610828e-01 2.233637e-01 5.536748e-02 -1.325246e-01 -3.497453e-02 -3.243080e-02 7.234097e-02 -8.259849e-02 -7.278254e-03
<VARIANCE> 39
 1.719785e+01 3.864191e+01 1.628127e+01 1.681929e+01 1.780452e+01 1.821453e+01 2.034474e+01 2.223707e+01 2.578600e+01 2.529551e+01 3.140948e+01 2.959599e+01 5.657904e-03 8.233086e-01 5.883107e-01 1.093531e+00 9.948577e-01 1.698603e+00 1.549896e+00 2.169481e+00 1.766623e+00 2.041972e+00 1.642676e+00 2.462787e+00 2.247849e+00 8.671510e-05 1.004723e-01 9.765927e-02 1.758689e-01 1.711537e-01 1.511749e-01 2.012411e-01 2.703374e-01 3.187787e-01 2.762460e-01 2.704619e-01 3.032404e-01 2.853865e-01 2.517568e-05
<GCONST> 6.936303e+01
<MIXTURE> 6 5.489110e-02
<MEAN> 39
 -2.751837e+00 1.248505e+01 -2.242184e+00 -5.397480e+00 -8.015760e-01 -9.004277e+00 -1.725754e+00 -1.781829e+00 1.269935e+00 -3.025055e-01 5.291187e-01 2.054174e-01 8.871498e-01 -7.710498e-02 -1.740727e+00 1.271281e+00 -2.441651e+00 1.103203e+00 -3.228117e-01 3.034346e-01 7.979434e-01 -2.770613e-01 2.502334e-02 -2.601345e-01 -2.346880e-01 -4.760653e-03 2.845829e-01 -4.966049e-01 4.164490e-01 1.855139e-01 -4.915294e-01 7.487481e-01 -3.486058e-01 2.068365e-01 -2.665360e-01 -2.214679e-01 -1.998110e-01 -1.213573e-01 -4.976709e-03
<VARIANCE> 39
 1.913612e+01 3.270892e+01 2.042673e+01 2.100365e+01 2.338028e+01 3.362463e+01 4.859493e+01 3.214148e+01 2.434367e+01 2.609560e+01 4.328344e+01 4.638714e+01 5.407625e-03 3.391266e-01 7.737640e-01 1.032680e+00 1.605443e+00 1.495124e+00 1.934187e+00 2.114459e+00 1.667312e+00 2.094089e+00 2.856722e+00 1.668907e+00 1.970054e+00 1.155753e-04 1.129100e-01 1.895921e-01 1.689666e-01 1.914801e-01 3.189237e-01 3.527371e-01 4.717157e-01 3.506005e-01 2.772466e-01 4.100708e-01 3.535924e-01 2.875286e-01 2.510710e-05
<GCONST> 7.612862e+01
<MIXTURE> 7 5.509352e-02
<MEAN> 39
 -2.955406e+00 1.249938e+01 -2.144396e+00 -5.462410e+00 -9.248624e-01 -9.026026e+00 -1.773828e+00 -1.943044e+00 1.246744e+00 -4.116905e-01 7.227297e-01 4.281365e-01 8.885511e-01 -8.491157e-02 -1.764515e+00 1.271979e+00 -2.483717e+00 1.093450e+00 -3.315081e-01 2.985598e-01 8.348480e-01 -2.870673e-01 7.035232e-02 -2.768440e-01 -2.483577e-01 -4.609221e-03 2.938489e-01 -5.142633e-01 4.126019e-01 1.821776e-01 -4.996068e-01 7.553841e-01 -3.465439e-01 2.223845e-01 -2.619301e-01 -2.105184e-01 -2.081646e-01 -1.315512e-01 -4.931285e-03
<VARIANCE> 39
 1.878961e+01 3.208664e+01 2.025347e+01 2.030745e+01 2.213983e+01 3.266979e+01 4.910189e+01 3.144073e+01 2.434616e+01 2.646399e+01 4.249119e+01 4.746751e+01 5.373719e-03 3.380949e-01 7.649186e-01 1.050676e+00 1.572737e+00 1.497541e+00 1.962016e+00 2.137206e+00 1.647046e+00 2.098197e+00 2.784377e+00 1.663285e+00 1.960880e+00 1.156853e-04 1.100504e-01 1.902353e-01 1.642263e-01 1.915643e-01 3.255818e-01 3.403336e-01 4.761160e-01 3.406242e-01 2.782654e-01 4.046894e-01 3.525755e-01 2.855572e-01 2.492925e-05
<GCONST> 7.582067e+01
<MIXTURE> 8 7.882768e-02
<MEAN> 39
 -2.782032e+00 1.069265e+01 -6.541296e+00 -4.750350e+00 -5.674856e+00 -7.723677e+00 -2.522479e-02 -1.107417e+00 5.580517e+00 9.409320e+00 1.021335e+01 1.395566e+01 9.127794e-01 4.402116e-01 -6.380621e-01 8.566980e-01 -7.296631e-01 9.927438e-01 -4.364426e-01 -1.801964e-01 1.217296e-01 -7.573974e-01 -3.621402e-01 -1.611861e+00 -1.974537e+00 -2.213456e-02 5.266013e-01 -1.414693e-01 4.539460e-01 3.961007e-01 1.928717e-01 3.969927e-01 -4.938281e-02 6.945276e-02 -3.794390e-01 -6.681573e-01 -6.522874e-01 -9.031430e-01 -1.403353e-02
<VARIANCE> 39
 1.704347e+01 2.412630e+01 2.542884e+01 1.552778e+01 2.732353e+01 2.469753e+01 3.196005e+01 4.394027e+01 7.277780e+01 6.643340e+01 2.943060e+01 6.868875e+01 3.963678e-03 1.024313e+00 1.108890e+00 1.846340e+00 1.764732e+00 2.501968e+00 1.249724e+00 1.856148e+00 1.734078e+00 1.226462e+00 2.438775e+00 2.913933e+00 2.748681e+00 1.631686e-04 1.550635e-01 2.199042e-01 4.229569e-01 2.218001e-01 3.071120e-01 3.837645e-01 4.209137e-01 4.161199e-01 3.656005e-01 5.243006e-01 3.344799e-01 6.347157e-01 5.274749e-05
<GCONST> 8.339732e+01
<MIXTURE> 9 7.793111e-02
<MEAN> 39
 -1.901825e+00 1.222089e+01 -6.942194e+00 -5.894901e+00 -7.107128e+00 -1.178348e+01 -4.224328e+00 -4.784237e+00 -4.505702e+00 -3.442614e+00 -5.325201e+00 -2.320635e+00 8.817549e-01 1.429023e-01 -6.468235e-01 1.298419e+00 -1.372611e+00 1.553593e+00 -3.678120e-01 6.154498e-01 6.381866e-01 3.189996e-01 5.982329e-02 1.004057e+00 -8.931011e-01 -1.250195e-02 3.961634e-01 -8.026913e-02 9.023163e-01 4.828722e-01 5.341709e-01 9.001471e-01 1.784369e-01 6.672690e-01 2.375999e-01 3.956366e-01 3.214079e-01 2.618838e-01 -1.011674e-02
<VARIANCE> 39
 1.489065e+01 2.752018e+01 1.509650e+01 2.034666e+01 1.260243e+01 1.732807e+01 2.514543e+01 3.123547e+01 1.794446e+01 2.008659e+01 2.228151e+01 4.426350e+01 4.746680e-03 4.746818e-01 6.548283e-01 9.509983e-01 2.169253e+00 1.483380e+00 1.695069e+00 2.646108e+00 1.425719e+00 2.241696e+00 1.541097e+00 1.855651e+00 1.798691e+00 1.170659e-04 1.181077e-01 1.850583e-01 2.363252e-01 2.992797e-01 2.572251e-01 2.311518e-01 3.473892e-01 3.124348e-01 3.961134e-01 3.723088e-01 2.886808e-01 3.968776e-01 3.779790e-05
<GCONST> 7.232212e+01
<MIXTURE> 10 2.412376e-01
<MEAN> 39
 -1.832376e+00 1.517322e+01 2.004987e+00 -4.784790e+00 -4.283132e+00 -5.388042e+00 -9.646312e+00 -5.445771e-01 7.182766e-01 -4.874370e+00 5.065912e+00 -4.427524e+00 8.504825e-01 5.355732e-01 -9.798164e-01 9.135492e-01 -7.888536e-01 7.036852e-01 4.588552e-01 1.105197e+00 2.253441e-01 4.645760e-01 4.376049e-01 -7.324101e-01 6.483817e-01 -2.022362e-02 2.498144e-01 -2.136105e-01 1.490602e-01 4.757125e-01 1.717464e-01 5.014951e-01 3.907833e-01 1.121981e-01 -1.562961e-01 1.025524e-01 -3.112260e-01 9.417075e-02 -1.065498e-02
<VARIANCE> 39
